{"learner":{"attributes":{"scikit_learn":"{\"_estimator_type\": \"regressor\"}"},"feature_names":["dist_sym_wing_l5_r1_to_sym_body_mid_wing","angl_sym_wing_l2_r2_to_sym_body_mid_wing","sym_wing_l5_r1_dz","sym_wing_l3_r1_dy","sym_wing_l1_r1_dx","dist_sym_wing_l4_r3_to_sym_wing_l3_r3","dist_sym_body_front_wing_to_sym_wing_l4_r1","dist_sym_wing_l1_r1_to_sym_wing_l5_r1","angl_sym_wing_l5_r1_to_sym_body_mid_wing","sym_wing_l2_r1_dz","angl_sym_wing_l1_r1_to_sym_body_back","sym_body_mid_wing_dz","sym_wing_l4_r3_dx","sym_body_back_wing_dz","dist_sym_wing_l5_r1_to_sym_body_back_wing","dist_sym_body_mid_wing_to_sym_wing_l5_r3","angl_sym_wing_l4_r1_to_sym_end_down_front","pt_wing_point_dz","angl_sym_wing_l1_r3_to_sym_wing_l5_r1","angl_sym_wing_l3_r1_to_sym_end_down_front","dist_sym_wing_l1_r2_to_sym_wing_l5_r3","dist_sym_wing_l4_r3_to_sym_body_front_wing","sym_wing_l1_r2_dx","dist_sym_body_front_wing_to_sym_wing_l3_r3","angl_sym_body_mid_wing_to_sym_wing_l2_r3"],"feature_types":["float","float","float","float","float","float","float","float","float","float","float","float","float","float","float","float","float","float","float","float","float","float","float","float","float"],"gradient_booster":{"model":{"cats":{"enc":[],"feature_segments":[],"sorted_idx":[]},"gbtree_model_param":{"num_parallel_tree":"1","num_trees":"762"},"iteration_indptr":[0,1,2,3,4,5,6,7,8,9,10,11,12,13,14,15,16,17,18,19,20,21,22,23,24,25,26,27,28,29,30,31,32,33,34,35,36,37,38,39,40,41,42,43,44,45,46,47,48,49,50,51,52,53,54,55,56,57,58,59,60,61,62,63,64,65,66,67,68,69,70,71,72,73,74,75,76,77,78,79,80,81,82,83,84,85,86,87,88,89,90,91,92,93,94,95,96,97,98,99,100,101,102,103,104,105,106,107,108,109,110,111,112,113,114,115,116,117,118,119,120,121,122,123,124,125,126,127,128,129,130,131,132,133,134,135,136,137,138,139,140,141,142,143,144,145,146,147,148,149,150,151,152,153,154,155,156,157,158,159,160,161,162,163,164,165,166,167,168,169,170,171,172,173,174,175,176,177,178,179,180,181,182,183,184,185,186,187,188,189,190,191,192,193,194,195,196,197,198,199,200,201,202,203,204,205,206,207,208,209,210,211,212,213,214,215,216,217,218,219,220,221,222,223,224,225,226,227,228,229,230,231,232,233,234,235,236,237,238,239,240,241,242,243,244,245,246,247,248,249,250,251,252,253,254,255,256,257,258,259,260,261,262,263,264,265,266,267,268,269,270,271,272,273,274,275,276,277,278,279,280,281,282,283,284,285,286,287,288,289,290,291,292,293,294,295,296,297,298,299,300,301,302,303,304,305,306,307,308,309,310,311,312,313,314,315,316,317,318,319,320,321,322,323,324,325,326,327,328,329,330,331,332,333,334,335,336,337,338,339,340,341,342,343,344,345,346,347,348,349,350,351,352,353,354,355,356,357,358,359,360,361,362,363,364,365,366,367,368,369,370,371,372,373,374,375,376,377,378,379,380,381,382,383,384,385,386,387,388,389,390,391,392,393,394,395,396,397,398,399,400,401,402,403,404,405,406,407,408,409,410,411,412,413,414,415,416,417,418,419,420,421,422,423,424,425,426,427,428,429,430,431,432,433,434,435,436,437,438,439,440,441,442,443,444,445,446,447,448,449,450,451,452,453,454,455,456,457,458,459,460,461,462,463,464,465,466,467,468,469,470,471,472,473,474,475,476,477,478,479,480,481,482,483,484,485,486,487,488,489,490,491,492,493,494,495,496,497,498,499,500,501,502,503,504,505,506,507,508,509,510,511,512,513,514,515,516,517,518,519,520,521,522,523,524,525,526,527,528,529,530,531,532,533,534,535,536,537,538,539,540,541,542,543,544,545,546,547,548,549,550,551,552,553,554,555,556,557,558,559,560,561,562,563,564,565,566,567,568,569,570,571,572,573,574,575,576,577,578,579,580,581,582,583,584,585,586,587,588,589,590,591,592,593,594,595,596,597,598,599,600,601,602,603,604,605,606,607,608,609,610,611,612,613,614,615,616,617,618,619,620,621,622,623,624,625,626,627,628,629,630,631,632,633,634,635,636,637,638,639,640,641,642,643,644,645,646,647,648,649,650,651,652,653,654,655,656,657,658,659,660,661,662,663,664,665,666,667,668,669,670,671,672,673,674,675,676,677,678,679,680,681,682,683,684,685,686,687,688,689,690,691,692,693,694,695,696,697,698,699,700,701,702,703,704,705,706,707,708,709,710,711,712,713,714,715,716,717,718,719,720,721,722,723,724,725,726,727,728,729,730,731,732,733,734,735,736,737,738,739,740,741,742,743,744,745,746,747,748,749,750,751,752,753,754,755,756,757,758,759,760,761,762],"tree_info":[0,0,0,0,0,0,0,0,0,0,0,0,0,0,0,0,0,0,0,0,0,0,0,0,0,0,0,0,0,0,0,0,0,0,0,0,0,0,0,0,0,0,0,0,0,0,0,0,0,0,0,0,0,0,0,0,0,0,0,0,0,0,0,0,0,0,0,0,0,0,0,0,0,0,0,0,0,0,0,0,0,0,0,0,0,0,0,0,0,0,0,0,0,0,0,0,0,0,0,0,0,0,0,0,0,0,0,0,0,0,0,0,0,0,0,0,0,0,0,0,0,0,0,0,0,0,0,0,0,0,0,0,0,0,0,0,0,0,0,0,0,0,0,0,0,0,0,0,0,0,0,0,0,0,0,0,0,0,0,0,0,0,0,0,0,0,0,0,0,0,0,0,0,0,0,0,0,0,0,0,0,0,0,0,0,0,0,0,0,0,0,0,0,0,0,0,0,0,0,0,0,0,0,0,0,0,0,0,0,0,0,0,0,0,0,0,0,0,0,0,0,0,0,0,0,0,0,0,0,0,0,0,0,0,0,0,0,0,0,0,0,0,0,0,0,0,0,0,0,0,0,0,0,0,0,0,0,0,0,0,0,0,0,0,0,0,0,0,0,0,0,0,0,0,0,0,0,0,0,0,0,0,0,0,0,0,0,0,0,0,0,0,0,0,0,0,0,0,0,0,0,0,0,0,0,0,0,0,0,0,0,0,0,0,0,0,0,0,0,0,0,0,0,0,0,0,0,0,0,0,0,0,0,0,0,0,0,0,0,0,0,0,0,0,0,0,0,0,0,0,0,0,0,0,0,0,0,0,0,0,0,0,0,0,0,0,0,0,0,0,0,0,0,0,0,0,0,0,0,0,0,0,0,0,0,0,0,0,0,0,0,0,0,0,0,0,0,0,0,0,0,0,0,0,0,0,0,0,0,0,0,0,0,0,0,0,0,0,0,0,0,0,0,0,0,0,0,0,0,0,0,0,0,0,0,0,0,0,0,0,0,0,0,0,0,0,0,0,0,0,0,0,0,0,0,0,0,0,0,0,0,0,0,0,0,0,0,0,0,0,0,0,0,0,0,0,0,0,0,0,0,0,0,0,0,0,0,0,0,0,0,0,0,0,0,0,0,0,0,0,0,0,0,0,0,0,0,0,0,0,0,0,0,0,0,0,0,0,0,0,0,0,0,0,0,0,0,0,0,0,0,0,0,0,0,0,0,0,0,0,0,0,0,0,0,0,0,0,0,0,0,0,0,0,0,0,0,0,0,0,0,0,0,0,0,0,0,0,0,0,0,0,0,0,0,0,0,0,0,0,0,0,0,0,0,0,0,0,0,0,0,0,0,0,0,0,0,0,0,0,0,0,0,0,0,0,0,0,0,0,0,0,0,0,0,0,0,0,0,0,0,0,0,0,0,0,0,0,0,0,0,0,0,0,0,0,0,0,0,0,0,0,0,0,0,0,0,0,0,0,0,0,0,0,0,0,0,0,0,0,0,0,0,0,0,0,0,0,0,0,0,0,0,0,0,0,0,0,0,0,0,0,0,0,0,0,0,0,0,0,0,0,0,0,0,0,0,0,0,0,0,0,0,0,0,0,0,0,0,0,0,0,0,0,0,0,0,0,0,0,0,0,0,0,0,0,0,0,0,0,0,0,0,0,0,0,0,0,0,0,0,0,0,0,0,0,0,0,0,0,0,0,0,0,0,0,0,0,0,0,0,0],"trees":[{"base_weights":[1.231859E-2,7.915422E-2,-4.2513654E-1,1.8492537E-2,1.8833345E-1,-6.726106E-1,4.5464184E-2,-3.3991415E-2,2.1333213E-1,2.2364174E-1,-1.0554585E-2,-1.3948975E-2,-4.035116E-3,5.091373E-3,-7.905514E-2,-3.0473265E-1,1.2803957E-2,3.5824856E-1,1.7275235E-2,1.6819756E-1,4.7262824E-1,-0E0,-2.9981453E-3,-7.6162415E-3,-0E0,-2.1653436E-3,1.1922284E-3,-0E0,8.025021E-3,-8.9887396E-4,2.6697337E-3,3.8673053E-3,-1.9104991E-3,5.063048E-4,9.715679E-3],"categories":[],"categories_nodes":[],"categories_segments":[],"categories_sizes":[],"default_left":[0,0,0,0,0,0,0,0,0,0,0,0,0,0,0,0,0,0,0,0,0,0,0,0,0,0,0,0,0,0,0,0,0,0,0],"id":0,"left_children":[1,3,5,7,9,11,13,15,17,19,-1,-1,-1,-1,21,23,25,27,29,31,33,-1,-1,-1,-1,-1,-1,-1,-1,-1,-1,-1,-1,-1,-1],"loss_changes":[4.6482863E0,8.919698E-1,2.5525765E0,9.611268E-1,1.2314368E0,2.4069405E-1,2.2648521E-1,9.492838E-1,5.0423634E-1,5.3961134E-1,0E0,0E0,0E0,0E0,2.4925001E-2,2.6719534E-1,3.7216872E-1,1.9779956E-1,8.7704204E-2,3.908608E-1,4.8612E-2,0E0,0E0,0E0,0E0,0E0,0E0,0E0,0E0,0E0,0E0,0E0,0E0,0E0,0E0],"parents":[2147483647,0,0,1,1,2,2,3,3,4,4,5,5,6,6,7,7,8,8,9,9,14,14,15,15,16,16,17,17,18,18,19,19,20,20],"right_children":[2,4,6,8,10,12,14,16,18,20,-1,-1,-1,-1,22,24,26,28,30,32,34,-1,-1,-1,-1,-1,-1,-1,-1,-1,-1,-1,-1,-1,-1],"split_conditions":[4.7382087E-2,3.162436E-2,-5.766E-3,1.0954E-2,9.415888E-1,6.311218E-2,1.4344E-2,-6.217825E-1,3.163105E-2,4.7716733E-2,-1.0554585E-2,-1.3948975E-2,-4.035116E-3,5.091373E-3,7.261285E-1,5.64562E-1,3.031309E-2,1.831826E-2,-1.197E-2,4.6114396E-2,9.433088E-3,-0E0,-2.9981453E-3,-7.6162415E-3,-0E0,-2.1653436E-3,1.1922284E-3,-0E0,8.025021E-3,-8.9887396E-4,2.6697337E-3,3.8673053E-3,-1.9104991E-3,5.063048E-4,9.715679E-3],"split_indices":[0,5,2,4,10,0,17,18,15,21,0,0,0,0,1,1,14,7,13,21,7,0,0,0,0,0,0,0,0,0,0,0,0,0,0],"split_type":[0,0,0,0,0,0,0,0,0,0,0,0,0,0,0,0,0,0,0,0,0,0,0,0,0,0,0,0,0,0,0,0,0,0,0],"sum_hessian":[1.61E2,1.4E2,2.1E1,9.1E1,4.9E1,1.4E1,7E0,7.1E1,2E1,4.7E1,2E0,1.2E1,2E0,3E0,4E0,1.1E1,6E1,1.1E1,9E0,3.9E1,8E0,2E0,2E0,8E0,3E0,1.6E1,4.4E1,2E0,9E0,5E0,4E0,3.5E1,4E0,1E0,7E0],"tree_param":{"num_deleted":"0","num_feature":"25","num_nodes":"35","size_leaf_vector":"1"}},{"base_weights":[-1.7496983E-2,3.340145E-2,-3.391495E-1,-2.0812777E-1,8.151576E-2,-4.7716263E-1,1.2361146E-1,-4.7731748E-1,2.4426863E-2,2.253164E-3,1.952077E-1,2.4427038E-2,-5.8884263E-1,2.206173E-1,-1.7834125E-3,-6.4611053E-1,-2.406795E-1,2.3875451E-1,-1.6149557E-1,-2.3004662E-1,3.8722992E-2,-3.7894854E-3,2.739904E-1,-0E0,1.9839415E-3,-1.3788669E-2,-4.0703285E-1,-0E0,4.8452555E-3,-1.3925841E-2,-7.017012E-4,-0E0,-5.1569687E-3,5.635149E-3,-0E0,-0E0,-4.4901487E-3,-0E0,-7.3894006E-3,4.935521E-3,-0E0,2.3652257E-3,-4.6181637E-3,1.020125E-3,6.98007E-3,-1.0738171E-2,-4.6548545E-3],"categories":[],"categories_nodes":[],"categories_segments":[],"categories_sizes":[],"default_left":[0,0,0,0,0,0,0,0,0,0,0,0,0,0,0,0,0,0,0,0,0,0,0,0,0,0,0,0,0,0,0,0,0,0,0,0,0,0,0,0,0,0,0,0,0,0,0],"id":1,"left_children":[1,3,5,7,9,11,13,15,17,19,21,23,25,27,-1,29,31,33,35,37,39,41,43,-1,-1,-1,45,-1,-1,-1,-1,-1,-1,-1,-1,-1,-1,-1,-1,-1,-1,-1,-1,-1,-1,-1,-1],"loss_changes":[2.7534246E0,1.6286051E0,1.5291989E0,1.517017E0,1.0387173E0,1.1045098E0,1.2712136E-1,2.8823423E-1,4.9134713E-1,5.6889975E-1,7.985724E-1,2.0070478E-2,1.8253517E-1,8.933842E-4,0E0,1.8929982E-1,5.774498E-3,9.889138E-2,6.746669E-2,2.818675E-1,5.1584214E-1,4.202245E-1,6.514714E-1,0E0,0E0,0E0,4.1579127E-2,0E0,0E0,0E0,0E0,0E0,0E0,0E0,0E0,0E0,0E0,0E0,0E0,0E0,0E0,0E0,0E0,0E0,0E0,0E0,0E0],"parents":[2147483647,0,0,1,1,2,2,3,3,4,4,5,5,6,6,7,7,8,8,9,9,10,10,11,11,12,12,13,13,15,15,16,16,17,17,18,18,19,19,20,20,21,21,22,22,26,26],"right_children":[2,4,6,8,10,12,14,16,18,20,22,24,26,28,-1,30,32,34,36,38,40,42,44,-1,-1,-1,46,-1,-1,-1,-1,-1,-1,-1,-1,-1,-1,-1,-1,-1,-1,-1,-1,-1,-1,-1,-1],"split_conditions":[4.7382087E-2,2.0720245E-2,4.6849453E-1,3.0629814E-2,4.976E-3,1.9376455E-2,6.311218E-2,1.619E-3,2.6058247E-2,-2.201E-2,-1.0999E-2,5.0472792E-2,4.3038256E-2,-1.874E-2,-1.7834125E-3,4.445E-3,1.2826043E-2,8.579E-3,1.9552791E-2,-2.8029514E-2,1.982608E-2,2.7382277E-2,-3.6861175E-1,-0E0,1.9839415E-3,-1.3788669E-2,3.786904E-2,-0E0,4.8452555E-3,-1.3925841E-2,-7.017012E-4,-0E0,-5.1569687E-3,5.635149E-3,-0E0,-0E0,-4.4901487E-3,-0E0,-7.3894006E-3,4.935521E-3,-0E0,2.3652257E-3,-4.6181637E-3,1.020125E-3,6.98007E-3,-1.0738171E-2,-4.6548545E-3],"split_indices":[0,14,16,23,12,6,0,4,7,13,4,0,14,2,0,2,0,2,5,24,15,7,19,0,0,0,6,0,0,0,0,0,0,0,0,0,0,0,0,0,0,0,0,0,0,0,0],"split_type":[0,0,0,0,0,0,0,0,0,0,0,0,0,0,0,0,0,0,0,0,0,0,0,0,0,0,0,0,0,0,0,0,0,0,0,0,0,0,0,0,0,0,0,0,0,0,0],"sum_hessian":[1.65E2,1.42E2,2.3E1,2.3E1,1.19E2,1.8E1,5E0,1.1E1,1.2E1,7.1E1,4.8E1,3E0,1.5E1,4E0,1E0,6E0,5E0,6E0,6E0,9E0,6.2E1,1.3E1,3.5E1,1E0,2E0,8E0,7E0,1E0,3E0,5E0,1E0,1E0,4E0,5E0,1E0,2E0,4E0,4E0,5E0,9E0,5.3E1,8E0,5E0,1.1E1,2.4E1,3E0,4E0],"tree_param":{"num_deleted":"0","num_feature":"25","num_nodes":"47","size_leaf_vector":"1"}},{"base_weights":[3.3317928E-3,-1.6300857E-1,7.4091405E-2,-9.788668E-2,-1.223455E-2,-7.4502826E-3,2.1184608E-1,-2.277892E-2,-3.960715E-1,-1.7321299E-1,5.3538285E-2,1.19273085E-2,1.4826134E-1,2.1112882E-1,-1.0124792E-1,-1.1058547E-2,-2.1264014E-1,9.080646E-2,-3.691058E-1,3.8074255E-2,1.421507E-2,5.9429154E-2,3.5613918E-1,2.9801478E-4,7.833481E-3,-5.303138E-4,-6.714483E-3,-4.517901E-3,-0E0,-2.5521812E-4,6.75803E-3,-9.696959E-3,-3.3238274E-3,1.432324E-3,-1.8872485E-3,2.6363545E-4,7.8267325E-3,7.178697E-3,-0E0],"categories":[],"categories_nodes":[],"categories_segments":[],"categories_sizes":[],"default_left":[0,0,0,0,0,0,0,0,0,0,0,0,0,0,0,0,0,0,0,0,0,0,0,0,0,0,0,0,0,0,0,0,0,0,0,0,0,0,0],"id":2,"left_children":[1,3,5,7,-1,9,11,13,15,17,19,-1,21,23,25,-1,27,29,31,33,-1,35,37,-1,-1,-1,-1,-1,-1,-1,-1,-1,-1,-1,-1,-1,-1,-1,-1],"loss_changes":[2.103478E0,1.53606E0,1.4613944E0,9.812267E-1,0E0,8.1905717E-1,1.1393695E0,6.7874414E-1,1.7262888E-1,1.18526E0,4.7893807E-1,0E0,7.047563E-1,2.8167465E-1,4.7186816E-1,0E0,6.493628E-4,3.0735505E-1,2.4082518E-1,2.8398862E-1,0E0,4.095911E-1,5.216682E-2,0E0,0E0,0E0,0E0,0E0,0E0,0E0,0E0,0E0,0E0,0E0,0E0,0E0,0E0,0E0,0E0],"parents":[2147483647,0,0,1,1,2,2,3,3,5,5,6,6,7,7,8,8,9,9,10,10,12,12,13,13,14,14,16,16,17,17,18,18,19,19,21,21,22,22],"right_children":[2,4,6,8,-1,10,12,14,16,18,20,-1,22,24,26,-1,28,30,32,34,-1,36,38,-1,-1,-1,-1,-1,-1,-1,-1,-1,-1,-1,-1,-1,-1,-1,-1],"split_conditions":[-9.062E-3,2.678E-2,3.8111035E-2,6.7368096E-1,-1.223455E-2,2.9640388E-2,-5.022066E-1,3.007153E-2,-2.8273144E-1,-2.941E-3,9.8857707E-1,1.19273085E-2,4.6559536E-1,3.721443E-2,4.6129435E-1,-1.1058547E-2,8.674386E-1,5.3091335E-1,2.4696168E-2,3.0925103E-2,1.421507E-2,6.0002845E-2,3.573683E-2,2.9801478E-4,7.833481E-3,-5.303138E-4,-6.714483E-3,-4.517901E-3,-0E0,-2.5521812E-4,6.75803E-3,-9.696959E-3,-3.3238274E-3,1.432324E-3,-1.8872485E-3,2.6363545E-4,7.8267325E-3,7.178697E-3,-0E0],"split_indices":[2,17,6,19,0,14,1,14,1,2,19,0,19,6,10,0,1,24,5,7,0,21,7,0,0,0,0,0,0,0,0,0,0,0,0,0,0,0,0],"split_type":[0,0,0,0,0,0,0,0,0,0,0,0,0,0,0,0,0,0,0,0,0,0,0,0,0,0,0,0,0,0,0,0,0,0,0,0,0,0,0],"sum_hessian":[1.8E2,5.3E1,1.27E2,4.7E1,6E0,7.9E1,4.8E1,3.8E1,9E0,2.2E1,5.7E1,6E0,4.2E1,9E0,2.9E1,4E0,5E0,9E0,1.3E1,5.6E1,1E0,3E1,1.2E1,5E0,4E0,2.3E1,6E0,4E0,1E0,6E0,3E0,7E0,6E0,4.5E1,1.1E1,2.7E1,3E0,1.1E1,1E0],"tree_param":{"num_deleted":"0","num_feature":"25","num_nodes":"39","size_leaf_vector":"1"}},{"base_weights":[-9.290002E-3,3.2861623E-1,-5.232451E-2,3.7014216E-1,-0E0,-5.9545115E-3,-3.099186E-1,4.7966948E-1,1.7368041E-1,-6.9852517E-4,-0E0,-1.3758643E-2,3.4361545E-3,4.16243E-3,-3.936439E-1,-0E0,9.774117E-3,2.2653727E-1,-0E0,-5.572913E-2,8.73892E-2,-5.363793E-1,-8.400174E-3,4.8594694E-3,-0E0,-2.4915754E-3,1.3877372E-3,-2.1902928E-3,2.3526822E-3,-1.1757316E-2,-2.7853958E-3,3.4498812E-3,-2.7725908E-3],"categories":[],"categories_nodes":[],"categories_segments":[],"categories_sizes":[],"default_left":[0,0,0,0,0,0,0,0,0,0,0,0,0,0,0,0,0,0,0,0,0,0,0,0,0,0,0,0,0,0,0,0,0],"id":3,"left_children":[1,3,5,7,9,11,13,15,17,-1,-1,-1,19,-1,21,-1,-1,23,-1,25,27,29,31,-1,-1,-1,-1,-1,-1,-1,-1,-1,-1],"loss_changes":[2.584946E0,3.0632162E-1,1.8692523E0,2.759714E-1,1.3549926E-3,1.0481025E0,1.0932167E0,1.2203097E-1,4.544151E-2,0E0,0E0,0E0,6.759552E-1,0E0,1.061899E0,0E0,0E0,5.711615E-3,0E0,7.694624E-1,4.2445007E-1,3.5558605E-1,1.5106755E-1,0E0,0E0,0E0,0E0,0E0,0E0,0E0,0E0,0E0,0E0],"parents":[2147483647,0,0,1,1,2,2,3,3,4,4,5,5,6,6,7,7,8,8,12,12,14,14,17,17,19,19,20,20,21,21,22,22],"right_children":[2,4,6,8,10,12,14,16,18,-1,-1,-1,20,-1,22,-1,-1,24,-1,26,28,30,32,-1,-1,-1,-1,-1,-1,-1,-1,-1,-1],"split_conditions":[-4.477753E-1,4.9690988E-2,4.839741E-2,2.9217023E-2,1.9703541E-2,-1.9294E-2,-1.7385E-2,-1.9156E-2,2.3877323E-2,-6.9852517E-4,-0E0,-1.3758643E-2,3.8606044E-2,4.16243E-3,3.0518364E-2,-0E0,9.774117E-3,7.391E-3,-0E0,2.979209E-2,-1.4091E-2,-5.766E-3,-1.6454E-2,4.8594694E-3,-0E0,-2.4915754E-3,1.3877372E-3,-2.1902928E-3,2.3526822E-3,-1.1757316E-2,-2.7853958E-3,3.4498812E-3,-2.7725908E-3],"split_indices":[1,14,0,0,0,3,4,4,20,0,0,0,21,0,5,0,0,3,0,23,2,2,2,0,0,0,0,0,0,0,0,0,0],"split_type":[0,0,0,0,0,0,0,0,0,0,0,0,0,0,0,0,0,0,0,0,0,0,0,0,0,0,0,0,0,0,0,0,0],"sum_hessian":[1.81E2,2E1,1.61E2,1.8E1,2E0,1.37E2,2.4E1,1.1E1,7E0,1E0,1E0,2E0,1.35E2,3E0,2.1E1,1E0,1E1,5E0,2E0,7.8E1,5.7E1,1.5E1,6E0,4E0,1E0,5E1,2.8E1,8E0,4.9E1,1.2E1,3E0,2E0,4E0],"tree_param":{"num_deleted":"0","num_feature":"25","num_nodes":"33","size_leaf_vector":"1"}},{"base_weights":[-3.410748E-2,-1.04387835E-1,1.5964945E-1,-7.238569E-2,-4.777708E-1,5.1367745E-2,3.102524E-1,-1.3871901E-2,-5.4349564E-2,-1.36367325E-2,-2.8880233E-1,-8.657625E-2,1.374717E-1,3.63707E-1,-1.1176331E-3,-4.7795543E-1,-2.6352488E-2,-6.7320303E-3,-1.3601322E-3,-1.6852793E-1,-0E0,1.7462794E-1,-0E0,2.4057598E-1,9.777797E-3,-0E0,-1.0711056E-2,1.8200908E-3,-1.9383772E-3,-0E0,-3.688416E-3,-0E0,-4.1200474E-5,-0E0,3.9015724E-3,5.87589E-3,4.2907978E-4],"categories":[],"categories_nodes":[],"categories_segments":[],"categories_sizes":[],"default_left":[0,0,0,0,0,0,0,0,0,0,0,0,0,0,0,0,0,0,0,0,0,0,0,0,0,0,0,0,0,0,0,0,0,0,0,0,0],"id":4,"left_children":[1,3,5,7,9,11,13,-1,15,-1,17,19,21,23,-1,25,27,-1,-1,29,31,33,-1,35,-1,-1,-1,-1,-1,-1,-1,-1,-1,-1,-1,-1,-1],"loss_changes":[2.4280796E0,1.4835114E0,7.0482326E-1,1.3153892E0,2.834251E-1,3.4124485E-1,4.2687047E-1,0E0,1.3253574E0,0E0,1.3247311E-2,6.7053854E-2,8.67565E-2,1.8841863E-1,0E0,3.1247318E-1,1.0389727E0,0E0,0E0,9.1083795E-3,1.4141595E-5,8.033419E-2,0E0,9.391338E-2,0E0,0E0,0E0,0E0,0E0,0E0,0E0,0E0,0E0,0E0,0E0,0E0,0E0],"parents":[2147483647,0,0,1,1,2,2,3,3,4,4,5,5,6,6,8,8,10,10,11,11,12,12,13,13,15,15,16,16,19,19,20,20,21,21,23,23],"right_children":[2,4,6,8,10,12,14,-1,16,-1,18,20,22,24,-1,26,28,-1,-1,30,32,34,-1,36,-1,-1,-1,-1,-1,-1,-1,-1,-1,-1,-1,-1,-1],"split_conditions":[4.4244224E-1,4.2231E-2,3.217582E-2,-7.1173435E-1,-6.99E-3,2.5428943E-2,7.7114254E-1,-1.3871901E-2,1.1036906E-2,-1.36367325E-2,1.1997E-2,-2.979424E-1,1.0065E-2,3.4950476E-2,-1.1176331E-3,2.789E-3,2.8477034E-2,-6.7320303E-3,-1.3601322E-3,-1.2730984E-1,-1.8827747E-1,-1.6805E-2,-0E0,2.3176715E-2,9.777797E-3,-0E0,-1.0711056E-2,1.8200908E-3,-1.9383772E-3,-0E0,-3.688416E-3,-0E0,-4.1200474E-5,-0E0,3.9015724E-3,5.87589E-3,4.2907978E-4],"split_indices":[18,7,5,24,22,23,24,0,23,0,22,16,12,6,0,11,15,0,0,1,16,3,0,6,0,0,0,0,0,0,0,0,0,0,0,0,0],"split_type":[0,0,0,0,0,0,0,0,0,0,0,0,0,0,0,0,0,0,0,0,0,0,0,0,0,0,0,0,0,0,0,0,0,0,0,0,0],"sum_hessian":[1.79E2,1.32E2,4.7E1,1.22E2,1E1,2.8E1,1.9E1,3E0,1.19E2,4E0,6E0,1E1,1.8E1,1.7E1,2E0,7E0,1.12E2,4E0,2E0,5E0,5E0,1.4E1,4E0,1E1,7E0,1E0,6E0,4.2E1,7E1,1E0,4E0,2E0,3E0,2E0,1.2E1,7E0,3E0],"tree_param":{"num_deleted":"0","num_feature":"25","num_nodes":"37","size_leaf_vector":"1"}},{"base_weights":[1.2780256E-2,-1.0100414E-1,1.070054E-1,-3.415829E-2,-4.2212325E-1,3.943642E-1,5.1686715E-2,3.3964638E-3,-4.318519E-1,-4.824965E-1,2.5034493E-3,1.2972113E-1,1.1473563E-2,6.1965093E-4,3.6116517E-1,-1.295056E-1,7.592141E-2,-0E0,-1.2940457E-2,-5.6393707E-1,-0E0,6.3361274E-3,-0E0,-1.2945649E-1,6.378853E-2,9.650202E-3,4.7935355E-3,-0E0,-5.2316645E-3,2.5501912E-3,-1.898189E-3,-1.172762E-2,-4.9798847E-3,-0E0,-4.5088798E-4,-8.570403E-3,-4.6819926E-4,-9.612558E-4,2.1998414E-3],"categories":[],"categories_nodes":[],"categories_segments":[],"categories_sizes":[],"default_left":[0,0,0,0,0,0,0,0,0,0,0,0,0,0,0,0,0,0,0,0,0,0,0,0,0,0,0,0,0,0,0,0,0,0,0,0,0,0,0],"id":5,"left_children":[1,3,5,7,9,11,13,15,17,19,-1,21,-1,23,25,27,29,-1,-1,31,-1,-1,33,35,37,-1,-1,-1,-1,-1,-1,-1,-1,-1,-1,-1,-1,-1,-1],"loss_changes":[1.8665377E0,1.5965426E0,1.450025E0,1.0438156E0,4.945941E-1,7.094977E-1,1.2184771E0,5.595518E-1,7.411051E-1,3.866155E-1,0E0,2.1666515E-1,0E0,5.6398165E-1,4.62631E-2,4.2463416E-1,4.070544E-1,0E0,0E0,1.2985706E-2,0E0,0E0,1.1291201E-3,6.6152203E-1,2.975266E-1,0E0,0E0,0E0,0E0,0E0,0E0,0E0,0E0,0E0,0E0,0E0,0E0,0E0,0E0],"parents":[2147483647,0,0,1,1,2,2,3,3,4,4,5,5,6,6,7,7,8,8,9,9,11,11,13,13,14,14,15,15,16,16,19,19,22,22,23,23,24,24],"right_children":[2,4,6,8,10,12,14,16,18,20,-1,22,-1,24,26,28,30,-1,-1,32,-1,-1,34,36,38,-1,-1,-1,-1,-1,-1,-1,-1,-1,-1,-1,-1,-1,-1],"split_conditions":[2.5068596E-2,3.565046E-2,-4.477753E-1,7.63305E-1,2.7427E-2,3.703793E-2,4.8069954E-2,-3.27E-3,6.256034E-2,3.191517E-1,2.5034493E-3,1.2736E-2,1.1473563E-2,-9.007E-3,1.5331082E-1,-1.4645E-2,1.8597E-2,-0E0,-1.2940457E-2,4.5345534E-2,-0E0,6.3361274E-3,-1.983E-3,-1.1698E-2,-1.6153E-2,9.650202E-3,4.7935355E-3,-0E0,-5.2316645E-3,2.5501912E-3,-1.898189E-3,-1.172762E-2,-4.9798847E-3,-0E0,-4.5088798E-4,-8.570403E-3,-4.6819926E-4,-9.612558E-4,2.1998414E-3],"split_indices":[5,20,1,10,11,6,21,4,1,18,0,17,0,4,8,4,11,0,0,14,0,0,4,2,13,0,0,0,0,0,0,0,0,0,0,0,0,0,0],"split_type":[0,0,0,0,0,0,0,0,0,0,0,0,0,0,0,0,0,0,0,0,0,0,0,0,0,0,0,0,0,0,0,0,0,0,0,0,0,0,0],"sum_hessian":[1.74E2,7.8E1,9.6E1,6.5E1,1.3E1,1.5E1,8.1E1,5.9E1,6E0,1.2E1,1E0,7E0,8E0,7E1,1.1E1,2E1,3.9E1,2E0,4E0,1E1,2E0,3E0,4E0,2.2E1,4.8E1,4E0,7E0,1E1,1E1,3E1,9E0,8E0,2E0,2E0,2E0,5E0,1.7E1,1.4E1,3.4E1],"tree_param":{"num_deleted":"0","num_feature":"25","num_nodes":"39","size_leaf_vector":"1"}},{"base_weights":[-6.0232873E-3,4.2110424E-2,-4.690718E-1,1.5835236E-1,-9.177447E-3,-1.7552204E-1,-1.1645738E-2,3.7110937E-1,7.0879325E-2,-7.881548E-2,1.1322946E-1,-0E0,-5.614172E-3,8.188363E-2,5.128535E-1,-1.2650466E-1,1.4298625E-1,-1.3735478E-1,1.2836914E-1,7.855659E-2,8.96622E-3,3.097642E-3,-1.387118E-3,6.354506E-3,1.1787357E-2,-0E0,-7.110785E-3,-9.828158E-5,4.5575174E-3,1.9855576E-3,-3.4392194E-3,-4.552548E-4,3.781358E-3,-2.5767155E-4,4.832812E-3],"categories":[],"categories_nodes":[],"categories_segments":[],"categories_sizes":[],"default_left":[0,0,0,0,0,0,0,0,0,0,0,0,0,0,0,0,0,0,0,0,0,0,0,0,0,0,0,0,0,0,0,0,0,0,0],"id":6,"left_children":[1,3,5,7,9,11,-1,13,15,17,19,-1,-1,21,23,25,27,29,31,33,-1,-1,-1,-1,-1,-1,-1,-1,-1,-1,-1,-1,-1,-1,-1],"loss_changes":[4.017787E0,9.7931236E-1,5.8721757E-1,8.551966E-1,9.3179417E-1,7.773435E-2,0E0,4.7258317E-1,5.151881E-1,8.626509E-1,3.9189553E-1,0E0,0E0,7.840331E-2,1.0559082E-2,2.772087E-1,4.2882067E-1,6.0771406E-1,1.919009E-1,6.252512E-1,0E0,0E0,0E0,0E0,0E0,0E0,0E0,0E0,0E0,0E0,0E0,0E0,0E0,0E0,0E0],"parents":[2147483647,0,0,1,1,2,2,3,3,4,4,5,5,7,7,8,8,9,9,10,10,13,13,14,14,15,15,16,16,17,17,18,18,19,19],"right_children":[2,4,6,8,10,12,-1,14,16,18,20,-1,-1,22,24,26,28,30,32,34,-1,-1,-1,-1,-1,-1,-1,-1,-1,-1,-1,-1,-1,-1,-1],"split_conditions":[3.7980236E-2,9.441E-3,1.5885E-2,3.764E-3,3.1642143E-2,3.5067368E-1,-1.1645738E-2,3.5574008E-2,-6.361E-3,1.1304E-2,6.249777E-1,-0E0,-5.614172E-3,3.4947775E-2,-7.9826355E-2,1.3479E-2,2.5892675E-2,3.557E-3,5.3726137E-2,1.1628E-2,8.96622E-3,3.097642E-3,-1.387118E-3,6.354506E-3,1.1787357E-2,-0E0,-7.110785E-3,-9.828158E-5,4.5575174E-3,1.9855576E-3,-3.4392194E-3,-4.552548E-4,3.781358E-3,-2.5767155E-4,4.832812E-3],"split_indices":[7,11,11,9,5,1,0,6,4,2,10,0,0,6,10,9,6,17,24,9,0,0,0,0,0,0,0,0,0,0,0,0,0,0,0],"split_type":[0,0,0,0,0,0,0,0,0,0,0,0,0,0,0,0,0,0,0,0,0,0,0,0,0,0,0,0,0,0,0,0,0,0,0],"sum_hessian":[1.77E2,1.6E2,1.7E1,5E1,1.1E2,6E0,1.1E1,1.4E1,3.6E1,7.1E1,3.9E1,3E0,3E0,5E0,9E0,9E0,2.7E1,5.6E1,1.5E1,3.6E1,3E0,4E0,1E0,4E0,5E0,6E0,3E0,1E1,1.7E1,8E0,4.8E1,4E0,1.1E1,2.3E1,1.3E1],"tree_param":{"num_deleted":"0","num_feature":"25","num_nodes":"35","size_leaf_vector":"1"}},{"base_weights":[-2.0591741E-2,-1.4306045E-2,-2.2271827E-3,2.1653746E-1,-4.6878543E-2,3.4596843E-1,2.9760247E-2,-2.0218958E-1,2.795562E-3,9.313154E-3,1.3544019E-1,-7.041237E-2,1.5833807E-1,-5.071616E-1,-3.566366E-2,1.700385E-2,-1.2350207E-2,8.1025865E-3,-0E0,-3.377292E-3,-0E0,-0E0,4.5070574E-3,-1.2288364E-2,-5.5324234E-4,-8.626169E-3,-0E0,6.077163E-5,1.2062487E-2],"categories":[],"categories_nodes":[],"categories_segments":[],"categories_sizes":[],"default_left":[0,0,0,0,0,0,0,0,0,0,0,0,0,0,0,0,0,0,0,0,0,0,0,0,0,0,0,0,0],"id":7,"left_children":[1,-1,3,5,7,9,11,13,15,-1,17,19,21,23,25,27,-1,-1,-1,-1,-1,-1,-1,-1,-1,-1,-1,-1,-1],"loss_changes":[2.2008622E0,0E0,1.6219003E0,6.128571E-1,1.121789E0,3.8104975E-1,1.6954502E-1,1.6849871E0,8.763736E-1,0E0,2.3621984E-1,6.527614E-2,7.521576E-2,6.900077E-1,3.8402092E-1,7.790978E-1,0E0,0E0,0E0,0E0,0E0,0E0,0E0,0E0,0E0,0E0,0E0,0E0,0E0],"parents":[2147483647,0,0,2,2,3,3,4,4,5,5,6,6,7,7,8,8,10,10,11,11,12,12,13,13,14,14,15,15],"right_children":[2,-1,4,6,8,10,12,14,16,-1,18,20,22,24,26,28,-1,-1,-1,-1,-1,-1,-1,-1,-1,-1,-1,-1,-1],"split_conditions":[-1.9294E-2,-1.4306045E-2,2.824E-3,1.6928E-2,-9.062E-3,1.6900803E-1,3.3813336E-1,-6.679E-3,1.9484E-2,9.313154E-3,-9.965E-3,-1.5364427E-4,1.6913585E-2,4.568012E-2,-9.1625214E-1,9.8385805E-1,-1.2350207E-2,8.1025865E-3,-0E0,-3.377292E-3,-0E0,-0E0,4.5070574E-3,-1.2288364E-2,-5.5324234E-4,-8.626169E-3,-0E0,6.077163E-5,1.2062487E-2],"split_indices":[3,0,9,11,2,16,24,13,9,0,3,8,0,21,8,19,0,0,0,0,0,0,0,0,0,0,0,0,0],"split_type":[0,0,0,0,0,0,0,0,0,0,0,0,0,0,0,0,0,0,0,0,0,0,0,0,0,0,0,0,0],"sum_hessian":[1.73E2,4E0,1.69E2,2.8E1,1.41E2,1.6E1,1.2E1,3.5E1,1.06E2,9E0,7E0,6E0,6E0,1.2E1,2.3E1,1.04E2,2E0,2E0,5E0,3E0,3E0,2E0,4E0,9E0,3E0,2E0,2.1E1,1.02E2,2E0],"tree_param":{"num_deleted":"0","num_feature":"25","num_nodes":"29","size_leaf_vector":"1"}},{"base_weights":[-1.291685E-2,2.705556E-2,-2.9683673E-1,-1.8235667E-1,6.192646E-2,-5.3490746E-1,-1.1890843E-1,-1.35168E-1,-1.0350357E-2,3.8923863E-2,7.482154E-3,-1.27354935E-2,-0E0,2.4611375E-3,-2.105325E-1,-2.1064259E-1,-0E0,-1.7574286E-2,1.4423716E-1,-3.2194665E-1,-8.034296E-4,-0E0,-5.59357E-3,2.7348187E-3,-5.838334E-4,9.976781E-4,-3.0170246E-3,5.2468753E-3,1.1874379E-3,-0E0,-6.8148836E-3,4.869921E-4,-2.1345697E-3],"categories":[],"categories_nodes":[],"categories_segments":[],"categories_sizes":[],"default_left":[0,0,0,0,0,0,0,0,0,0,0,0,0,0,0,0,0,0,0,0,0,0,0,0,0,0,0,0,0,0,0,0,0],"id":8,"left_children":[1,3,5,7,9,11,13,15,-1,17,-1,-1,-1,-1,19,21,23,25,27,29,31,-1,-1,-1,-1,-1,-1,-1,-1,-1,-1,-1,-1],"loss_changes":[2.0206985E0,1.0894388E0,8.204787E-1,2.4379945E-1,9.27684E-1,5.7770896E-1,3.0989173E-1,1.8530631E-1,0E0,7.534382E-1,0E0,0E0,0E0,0E0,1.7866114E-1,1.62646E-1,2.6449079E-2,8.018202E-1,4.17435E-1,2.295345E-2,2.6620602E-2,0E0,0E0,0E0,0E0,0E0,0E0,0E0,0E0,0E0,0E0,0E0,0E0],"parents":[2147483647,0,0,1,1,2,2,3,3,4,4,5,5,6,6,7,7,9,9,14,14,15,15,16,16,17,17,18,18,19,19,20,20],"right_children":[2,4,6,8,10,12,14,16,-1,18,-1,-1,-1,-1,20,22,24,26,28,30,32,-1,-1,-1,-1,-1,-1,-1,-1,-1,-1,-1,-1],"split_conditions":[4.7322802E-2,1.6966274E-2,-1.5866E-2,1.6941E-2,1.5934E-2,-1.2798E-2,-1.6454E-2,-3.2835E-1,-1.0350357E-2,3.9535005E-2,7.482154E-3,-1.27354935E-2,-0E0,2.4611375E-3,-1.448E-3,-1.6787083E-1,-1.6275E-2,1.3349E-2,-3.3024776E-1,4.839741E-2,7.4015695E-1,-0E0,-5.59357E-3,2.7348187E-3,-5.838334E-4,9.976781E-4,-3.0170246E-3,5.2468753E-3,1.1874379E-3,-0E0,-6.8148836E-3,4.869921E-4,-2.1345697E-3],"split_indices":[0,5,13,9,12,2,2,10,0,6,0,0,0,0,12,24,2,9,18,0,1,0,0,0,0,0,0,0,0,0,0,0,0],"split_type":[0,0,0,0,0,0,0,0,0,0,0,0,0,0,0,0,0,0,0,0,0,0,0,0,0,0,0,0,0,0,0,0,0],"sum_hessian":[1.74E2,1.52E2,2.2E1,2.1E1,1.31E2,9E0,1.3E1,1.9E1,2E0,1.23E2,8E0,7E0,2E0,3E0,1E1,1.2E1,7E0,7.9E1,4.4E1,6E0,4E0,4E0,8E0,1E0,6E0,5.2E1,2.7E1,1.6E1,2.8E1,1E0,5E0,2E0,2E0],"tree_param":{"num_deleted":"0","num_feature":"25","num_nodes":"33","size_leaf_vector":"1"}},{"base_weights":[-1.556009E-2,2.8993258E-2,-3.1897917E-1,-8.730163E-2,9.51397E-2,-5.3834885E-1,-1.2196851E-1,1.2088605E-1,-2.1233185E-1,-4.7374982E-2,1.5511474E-1,-1.125705E-2,-0E0,-0E0,-3.7198403E-1,7.187262E-2,1.580157E-2,-3.4131965E-1,-2.51033E-2,3.2134306E-1,-1.3892142E-1,3.4180963E-1,9.3201995E-2,-1.9243051E-3,1.0748375E-1,-8.33383E-3,-0E0,-0E0,4.1977544E-3,-0E0,-7.6412773E-3,1.5483918E-3,-4.7677755E-3,7.696605E-3,-0E0,-0E0,-4.557934E-3,9.461312E-3,2.1992917E-3,2.905742E-3,-1.3637754E-4,-0E0,2.9480588E-3],"categories":[],"categories_nodes":[],"categories_segments":[],"categories_sizes":[],"default_left":[0,0,0,0,0,0,0,0,0,0,0,0,0,0,0,0,0,0,0,0,0,0,0,0,0,0,0,0,0,0,0,0,0,0,0,0,0,0,0,0,0,0,0],"id":9,"left_children":[1,3,5,7,9,11,13,15,17,19,21,-1,-1,23,25,27,-1,29,31,33,35,37,39,-1,41,-1,-1,-1,-1,-1,-1,-1,-1,-1,-1,-1,-1,-1,-1,-1,-1,-1,-1],"loss_changes":[2.320503E0,1.1244397E0,8.382609E-1,1.3691323E0,8.2181066E-1,2.6892424E-1,3.7497276E-1,5.087099E-1,7.345065E-1,8.8029003E-1,7.002996E-1,0E0,0E0,8.734311E-2,2.5117993E-2,2.0061918E-1,0E0,3.8084388E-1,3.6672536E-1,1.4170104E-1,3.2540283E-1,4.6194983E-1,3.3166257E-1,0E0,2.6193596E-2,0E0,0E0,0E0,0E0,0E0,0E0,0E0,0E0,0E0,0E0,0E0,0E0,0E0,0E0,0E0,0E0,0E0,0E0],"parents":[2147483647,0,0,1,1,2,2,3,3,4,4,5,5,6,6,7,7,8,8,9,9,10,10,13,13,14,14,15,15,17,17,18,18,19,19,20,20,21,21,22,22,24,24],"right_children":[2,4,6,8,10,12,14,16,18,20,22,-1,-1,24,26,28,-1,30,32,34,36,38,40,-1,42,-1,-1,-1,-1,-1,-1,-1,-1,-1,-1,-1,-1,-1,-1,-1,-1,-1,-1],"split_conditions":[3.7823632E-2,-5.829E-3,-8.606E-3,6.596E-3,-5.843941E-1,4.434183E-2,3.0430688E-2,1.4499E-2,1.9676873E-1,2.1257065E-2,9.57E-3,-1.125705E-2,-0E0,6.457E-3,-1.3249E-2,4.5541063E-1,1.580157E-2,1.7012585E-2,2.4411E-2,1.2237E-2,-8.230427E-1,1.6900803E-1,3.2207992E-2,-1.9243051E-3,-1.8853E-2,-8.33383E-3,-0E0,-0E0,4.1977544E-3,-0E0,-7.6412773E-3,1.5483918E-3,-4.7677755E-3,7.696605E-3,-0E0,-0E0,-4.557934E-3,9.461312E-3,2.1992917E-3,2.905742E-3,-1.3637754E-4,-0E0,2.9480588E-3],"split_indices":[7,12,13,11,16,8,20,3,18,15,11,0,0,9,2,18,0,5,11,3,16,16,20,0,2,0,0,0,0,0,0,0,0,0,0,0,0,0,0,0,0,0,0],"split_type":[0,0,0,0,0,0,0,0,0,0,0,0,0,0,0,0,0,0,0,0,0,0,0,0,0,0,0,0,0,0,0,0,0,0,0,0,0,0,0,0,0,0,0],"sum_hessian":[1.68E2,1.46E2,2.2E1,5.2E1,9.4E1,1E1,1.2E1,1.9E1,3.3E1,2.7E1,6.7E1,9E0,1E0,8E0,4E0,1.8E1,1E0,1.9E1,1.4E1,5E0,2.2E1,1.6E1,5.1E1,4E0,4E0,3E0,1E0,1.2E1,6E0,3E0,1.6E1,9E0,5E0,4E0,1E0,9E0,1.3E1,9E0,7E0,3.3E1,1.8E1,1E0,3E0],"tree_param":{"num_deleted":"0","num_feature":"25","num_nodes":"43","size_leaf_vector":"1"}},{"base_weights":[-6.82046E-3,-1.2745558E-2,1.1730914E-2,-9.492857E-2,9.183208E-2,-2.6480582E-1,3.6712456E-2,1.5438843E-1,-1.2942544E-1,2.8857084E-3,-3.6113763E-1,3.4501895E-1,-2.4618646E-3,6.549456E-2,3.1269443E-1,-6.3159995E-2,-8.922843E-3,2.3356283E-3,-2.6686292E-3,-1.6305367E-3,-9.26223E-3,-0E0,8.070353E-3,-1.9517362E-3,1.3872896E-3,-9.133971E-4,4.1341735E-3,6.8869945E-3,-6.135908E-4,1.2609249E-3,-2.6978E-3],"categories":[],"categories_nodes":[],"categories_segments":[],"categories_sizes":[],"default_left":[0,0,0,0,0,0,0,0,0,0,0,0,0,0,0,0,0,0,0,0,0,0,0,0,0,0,0,0,0,0,0],"id":10,"left_children":[1,-1,3,5,7,9,11,13,15,17,19,21,23,25,27,29,-1,-1,-1,-1,-1,-1,-1,-1,-1,-1,-1,-1,-1,-1,-1],"loss_changes":[2.270845E0,0E0,1.4518754E0,1.648997E0,1.3606787E0,8.862481E-1,5.414904E-1,1.019122E0,3.8332108E-1,1.3500719E-1,7.4071956E-1,1.2827522E-1,2.7058578E-1,8.9456785E-1,5.2427363E-1,1.9722039E-1,0E0,0E0,0E0,0E0,0E0,0E0,0E0,0E0,0E0,0E0,0E0,0E0,0E0,0E0,0E0],"parents":[2147483647,0,0,2,2,3,3,4,4,5,5,6,6,7,7,8,8,9,9,10,10,11,11,12,12,13,13,14,14,15,15],"right_children":[2,-1,4,6,8,10,12,14,16,18,20,22,24,26,28,30,-1,-1,-1,-1,-1,-1,-1,-1,-1,-1,-1,-1,-1,-1,-1],"split_conditions":[-1.9217E-2,-1.2745558E-2,2.4408827E-2,-2.451E-3,3.259403E-2,-1.0508134E-1,2.871E-3,3.703793E-2,4.839741E-2,2.0247562E-2,3.4651306E-2,1.0179E-2,1.5013971E-2,-4.713E-3,4.0938366E-2,5.429E-3,-8.922843E-3,2.3356283E-3,-2.6686292E-3,-1.6305367E-3,-9.26223E-3,-0E0,8.070353E-3,-1.9517362E-3,1.3872896E-3,-9.133971E-4,4.1341735E-3,6.8869945E-3,-6.135908E-4,1.2609249E-3,-2.6978E-3],"split_indices":[3,0,5,4,7,24,9,6,0,5,0,4,5,13,5,9,0,0,0,0,0,0,0,0,0,0,0,0,0,0,0],"split_type":[0,0,0,0,0,0,0,0,0,0,0,0,0,0,0,0,0,0,0,0,0,0,0,0,0,0,0,0,0,0,0],"sum_hessian":[1.75E2,5E0,1.7E2,7.2E1,9.8E1,3.2E1,4E1,7.7E1,2.1E1,8E0,2.4E1,5E0,3.5E1,5E1,2.7E1,1.8E1,3E0,5E0,3E0,8E0,1.6E1,1E0,4E0,1.6E1,1.9E1,2.8E1,2.2E1,2.4E1,3E0,6E0,1.2E1],"tree_param":{"num_deleted":"0","num_feature":"25","num_nodes":"31","size_leaf_vector":"1"}},{"base_weights":[3.5750695E-2,-3.3130847E-2,1.7523496E-1,-1.32850725E-2,-2.0049643E-2,1.7495858E-3,2.472424E-1,-9.1515735E-2,6.325675E-2,5.0583906E-3,-6.1737522E-2,5.1281303E-1,1.6722469E-1,-1.3847641E-2,-6.779672E-2,6.3354434E-3,3.162773E-1,-1.4988616E-1,2.7388781E-2,-0E0,5.626979E-1,2.290671E-1,-7.2353885E-2,-2.4412952E-3,1.2923754E-3,3.881406E-3,-9.2152326E-4,6.349031E-5,8.431928E-3,-3.844381E-3,-0E0,1.0489683E-3,-0E0,4.5250007E-3,1.2189939E-2,2.7518813E-3,7.0002656E-3,-3.4610946E-3,-0E0],"categories":[],"categories_nodes":[],"categories_segments":[],"categories_sizes":[],"default_left":[0,0,0,0,0,0,0,0,0,0,0,0,0,0,0,0,0,0,0,0,0,0,0,0,0,0,0,0,0,0,0,0,0,0,0,0,0,0,0],"id":11,"left_children":[1,3,5,-1,7,9,11,13,15,-1,17,19,21,-1,23,25,27,29,31,-1,33,35,37,-1,-1,-1,-1,-1,-1,-1,-1,-1,-1,-1,-1,-1,-1,-1,-1],"loss_changes":[1.7152078E0,8.980392E-1,6.9460595E-1,0E0,6.8947816E-1,3.37528E-1,7.5536513E-1,8.1775856E-1,6.939343E-1,0E0,1.3086647E-1,1.662364E-1,5.0082463E-1,0E0,5.147826E-1,4.9445626E-1,2.8436828E-1,6.652342E-2,7.7215536E-3,0E0,5.6554794E-2,2.1797991E-1,6.8387285E-2,0E0,0E0,0E0,0E0,0E0,0E0,0E0,0E0,0E0,0E0,0E0,0E0,0E0,0E0,0E0,0E0],"parents":[2147483647,0,0,1,1,2,2,4,4,5,5,6,6,7,7,8,8,10,10,11,11,12,12,14,14,15,15,16,16,17,17,18,18,20,20,21,21,22,22],"right_children":[2,4,6,-1,8,10,12,14,16,-1,18,20,22,-1,24,26,28,30,32,-1,34,36,38,-1,-1,-1,-1,-1,-1,-1,-1,-1,-1,-1,-1,-1,-1,-1,-1],"split_conditions":[3.338281E-2,-9.2352635E-1,-5.0858724E-1,-1.32850725E-2,2.14E-3,-1.4621E-2,6.114E-3,1.8784283E-2,1.1154E-2,5.0583906E-3,2.7503477E-2,-1.8415E-2,3.8804103E-2,-1.3847641E-2,9.667E-3,9.57E-3,2.3274222E-2,-2.65E-4,3.7137687E-2,-0E0,1.458184E-2,1.0289E-2,-5.1729864E-1,-2.4412952E-3,1.2923754E-3,3.881406E-3,-9.2152326E-4,6.349031E-5,8.431928E-3,-3.844381E-3,-0E0,1.0489683E-3,-0E0,4.5250007E-3,1.2189939E-2,2.7518813E-3,7.0002656E-3,-3.4610946E-3,-0E0],"split_indices":[5,8,10,0,4,3,11,14,22,0,14,12,0,0,2,11,21,2,5,0,0,12,8,0,0,0,0,0,0,0,0,0,0,0,0,0,0,0,0],"split_type":[0,0,0,0,0,0,0,0,0,0,0,0,0,0,0,0,0,0,0,0,0,0,0,0,0,0,0,0,0,0,0,0,0,0,0,0,0,0,0],"sum_hessian":[1.76E2,1.17E2,5.9E1,2E0,1.15E2,1.8E1,4.1E1,6.3E1,5.2E1,4E0,1.4E1,9E0,3.2E1,2E0,6.1E1,4.3E1,9E0,8E0,6E0,1E0,8E0,2.6E1,6E0,4.3E1,1.8E1,1E1,3.3E1,3E0,6E0,6E0,2E0,4E0,2E0,2E0,6E0,1.7E1,9E0,3E0,3E0],"tree_param":{"num_deleted":"0","num_feature":"25","num_nodes":"39","size_leaf_vector":"1"}},{"base_weights":[4.4966107E-3,-1.17763355E-1,9.846179E-2,-1.6523239E-1,1.83236E-1,4.861697E-2,4.26597E-1,-1.1662278E-1,-4.5955744E-1,2.6075497E-1,-7.898775E-4,-1.624703E-2,1.8186389E-1,5.1908034E-1,1.7590159E-1,1.3292013E-1,-1.7216153E-1,-0E0,-6.033878E-1,7.307906E-2,7.701057E-3,2.1589838E-3,-4.1663635E-1,2.35604E-1,-4.691335E-3,6.088934E-3,1.2212508E-2,4.3188706E-3,-0E0,9.987544E-3,2.5177258E-4,-4.69272E-3,-7.111369E-4,-1.3146393E-2,-5.5923606E-3,-0E0,2.3162416E-3,1.0194712E-3,-2.6635225E-3,2.2536246E-4,-1.35891475E-2,5.235026E-3,-0E0,-0E0,-9.797995E-4],"categories":[],"categories_nodes":[],"categories_segments":[],"categories_sizes":[],"default_left":[0,0,0,0,0,0,0,0,0,0,0,0,0,0,0,0,0,0,0,0,0,0,0,0,0,0,0,0,0,0,0,0,0,0,0,0,0,0,0,0,0,0,0,0,0],"id":12,"left_children":[1,3,5,7,9,11,13,15,17,19,-1,21,23,25,27,29,31,-1,33,35,-1,37,39,41,43,-1,-1,-1,-1,-1,-1,-1,-1,-1,-1,-1,-1,-1,-1,-1,-1,-1,-1,-1,-1],"loss_changes":[2.0530949E0,1.0971191E0,1.5873044E0,8.6037135E-1,2.1165615E-1,7.974469E-1,1.8296051E-1,8.1052744E-1,6.478002E-1,1.3618624E-1,0E0,5.0544465E-1,3.4011972E-1,5.769539E-2,3.1628527E-2,3.7874404E-1,4.3718588E-1,0E0,2.4854183E-2,2.3333086E-2,0E0,3.967705E-1,5.050052E-1,1.8986857E-1,5.1997895E-3,0E0,0E0,0E0,0E0,0E0,0E0,0E0,0E0,0E0,0E0,0E0,0E0,0E0,0E0,0E0,0E0,0E0,0E0,0E0,0E0],"parents":[2147483647,0,0,1,1,2,2,3,3,4,4,5,5,6,6,7,7,8,8,9,9,11,11,12,12,13,13,14,14,15,15,16,16,18,18,19,19,21,21,22,22,23,23,24,24],"right_children":[2,4,6,8,10,12,14,16,18,20,-1,22,24,26,28,30,32,-1,34,36,-1,38,40,42,44,-1,-1,-1,-1,-1,-1,-1,-1,-1,-1,-1,-1,-1,-1,-1,-1,-1,-1,-1,-1],"split_conditions":[-1.75E-3,1.5051E-2,1.6038E-2,8.1837094E-1,3.1436183E-2,2.6225695E-1,2.897119E-2,-1.7657211E-1,-4.405915E-1,3.5949077E-2,-7.898775E-4,3.9596878E-2,2.4411E-2,1.6878E-2,3.250956E-2,2.641E-3,1.7895713E-1,-0E0,9.314812E-1,3.5739467E-2,7.701057E-3,1.0842E-2,1.781113E-2,8.3803916E-1,3.972E-3,6.088934E-3,1.2212508E-2,4.3188706E-3,-0E0,9.987544E-3,2.5177258E-4,-4.69272E-3,-7.111369E-4,-1.3146393E-2,-5.5923606E-3,-0E0,2.3162416E-3,1.0194712E-3,-2.6635225E-3,2.2536246E-4,-1.35891475E-2,5.235026E-3,-0E0,-0E0,-9.797995E-4],"split_indices":[4,3,12,19,7,18,7,24,1,14,0,20,11,12,0,9,18,0,19,0,0,3,0,1,4,0,0,0,0,0,0,0,0,0,0,0,0,0,0,0,0,0,0,0,0],"split_type":[0,0,0,0,0,0,0,0,0,0,0,0,0,0,0,0,0,0,0,0,0,0,0,0,0,0,0,0,0,0,0,0,0,0,0,0,0,0,0,0,0,0,0,0,0],"sum_hessian":[1.79E2,7.7E1,1.02E2,6.7E1,1E1,8.9E1,1.3E1,5.8E1,9E0,8E0,2E0,5.9E1,3E1,9E0,4E0,1E1,4.8E1,2E0,7E0,4E0,4E0,5.6E1,3E0,2.4E1,6E0,4E0,5E0,3E0,1E0,2E0,8E0,3E1,1.8E1,5E0,2E0,1E0,3E0,4.2E1,1.4E1,1E0,2E0,2E1,4E0,4E0,2E0],"tree_param":{"num_deleted":"0","num_feature":"25","num_nodes":"45","size_leaf_vector":"1"}},{"base_weights":[-3.4202706E-2,7.1295938E-3,-3.395174E-1,2.2079243E-1,-3.1905655E-2,-4.6680897E-1,1.588639E-1,7.2758056E-2,4.4857955E-1,-3.8436285E-1,-3.2442922E-4,-0E0,-5.228722E-1,5.364347E-3,-8.002138E-4,-3.760121E-2,2.2323026E-1,1.09596355E-2,-0E0,-1.1444036E-2,-9.864647E-3,7.565011E-2,-6.815072E-2,-0E0,-1.3952075E-3,-1.0684187E-2,-3.352418E-3,-3.4472805E-3,2.7987768E-4,-0E0,5.328246E-3,-1.8599976E-3,-0E0,5.0470685E-3,4.3648024E-4,-6.454913E-3,-4.8366503E-4],"categories":[],"categories_nodes":[],"categories_segments":[],"categories_sizes":[],"default_left":[0,0,0,0,0,0,0,0,0,0,0,0,0,0,0,0,0,0,0,0,0,0,0,0,0,0,0,0,0,0,0,0,0,0,0,0,0],"id":13,"left_children":[1,3,5,7,9,11,13,15,17,19,21,23,25,-1,-1,27,29,-1,-1,31,-1,33,35,-1,-1,-1,-1,-1,-1,-1,-1,-1,-1,-1,-1,-1,-1],"loss_changes":[2.2271788E0,1.2915899E0,1.3847182E0,7.204355E-1,1.348078E0,3.9645004E-1,1.4056015E-1,2.8072706E-1,5.2385926E-1,4.1466475E-1,6.016312E-1,5.405681E-3,8.2454205E-2,0E0,0E0,8.877956E-2,1.2421197E-1,0E0,0E0,1.8821536E-2,0E0,4.918256E-1,6.687675E-1,0E0,0E0,0E0,0E0,0E0,0E0,0E0,0E0,0E0,0E0,0E0,0E0,0E0,0E0],"parents":[2147483647,0,0,1,1,2,2,3,3,4,4,5,5,6,6,7,7,8,8,9,9,10,10,11,11,12,12,15,15,16,16,19,19,21,21,22,22],"right_children":[2,4,6,8,10,12,14,16,18,20,22,24,26,-1,-1,28,30,-1,-1,32,-1,34,36,-1,-1,-1,-1,-1,-1,-1,-1,-1,-1,-1,-1,-1,-1],"split_conditions":[4.991314E-2,-4.0125936E-1,3.0605955E-2,3.703793E-2,1.3160302E-2,1.778524E-2,6.311218E-2,8.9239724E-2,9.112E-3,-6.345496E-1,2.544515E-2,5.233997E-2,4.568012E-2,5.364347E-3,-8.002138E-4,1.7601673E-2,-1.9534E-2,1.09596355E-2,-0E0,3.842377E-2,-9.864647E-3,-3.860079E-1,1.6308524E-2,-0E0,-1.3952075E-3,-1.0684187E-2,-3.352418E-3,-3.4472805E-3,2.7987768E-4,-0E0,5.328246E-3,-1.8599976E-3,-0E0,5.0470685E-3,4.3648024E-4,-6.454913E-3,-4.8366503E-4],"split_indices":[0,1,5,6,14,6,0,24,11,16,20,0,21,0,0,23,2,0,0,0,0,8,5,0,0,0,0,0,0,0,0,0,0,0,0,0,0],"split_type":[0,0,0,0,0,0,0,0,0,0,0,0,0,0,0,0,0,0,0,0,0,0,0,0,0,0,0,0,0,0,0,0,0,0,0,0,0],"sum_hessian":[1.72E2,1.51E2,2.1E1,2.4E1,1.27E2,1.7E1,4E0,1.5E1,9E0,1E1,1.17E2,2E0,1.5E1,3E0,1E0,8E0,7E0,7E0,2E0,3E0,7E0,5.4E1,6.3E1,1E0,1E0,1.3E1,2E0,3E0,5E0,1E0,6E0,2E0,1E0,1.1E1,4.3E1,8E0,5.5E1],"tree_param":{"num_deleted":"0","num_feature":"25","num_nodes":"37","size_leaf_vector":"1"}},{"base_weights":[-3.0208506E-2,1.2950768E-2,-3.1324512E-1,-1.7675081E-1,6.1707657E-2,-4.4002724E-1,5.9826463E-2,-1.00119695E-1,-4.804137E-1,2.4816267E-1,2.7642732E-2,-7.7505074E-2,-5.573258E-1,-3.0052021E-2,6.1635138E-3,8.960005E-2,-1.6555718E-1,-1.1760645E-2,-2.2111803E-3,1.2918232E-1,4.7754818E-1,-5.5972323E-2,1.22575216E-1,-4.7798143E-3,1.8757196E-3,-6.210682E-1,-1.7013386E-3,-0E0,-2.5179023E-3,4.0514003E-3,-1.3848577E-3,6.657165E-4,-3.744398E-3,-1.3006497E-3,4.4783507E-3,1.1590424E-3,9.995927E-3,-8.133824E-3,-4.674195E-4,1.0942917E-3,4.2951605E-3,-1.2719591E-2,-5.498762E-3],"categories":[],"categories_nodes":[],"categories_segments":[],"categories_sizes":[],"default_left":[0,0,0,0,0,0,0,0,0,0,0,0,0,0,0,0,0,0,0,0,0,0,0,0,0,0,0,0,0,0,0,0,0,0,0,0,0,0,0,0,0,0,0],"id":14,"left_children":[1,3,5,7,9,11,13,15,17,19,21,23,25,27,-1,29,31,-1,-1,33,35,37,39,-1,-1,41,-1,-1,-1,-1,-1,-1,-1,-1,-1,-1,-1,-1,-1,-1,-1,-1,-1],"loss_changes":[2.3110757E0,1.4602743E0,1.2472682E0,6.456996E-1,7.659959E-1,6.9974804E-1,1.9312614E-1,3.3572987E-1,1.7873812E-1,4.1514897E-1,8.765698E-1,1.7983933E-1,2.962165E-1,3.1598676E-2,0E0,1.448062E-1,1.5510225E-1,0E0,0E0,3.0309284E-1,2.2776008E-2,5.8847064E-1,3.0183935E-1,0E0,0E0,3.2042503E-2,0E0,0E0,0E0,0E0,0E0,0E0,0E0,0E0,0E0,0E0,0E0,0E0,0E0,0E0,0E0,0E0,0E0],"parents":[2147483647,0,0,1,1,2,2,3,3,4,4,5,5,6,6,7,7,8,8,9,9,10,10,11,11,12,12,13,13,15,15,16,16,19,19,20,20,21,21,22,22,25,25],"right_children":[2,4,6,8,10,12,14,16,18,20,22,24,26,28,-1,30,32,-1,-1,34,36,38,40,-1,-1,42,-1,-1,-1,-1,-1,-1,-1,-1,-1,-1,-1,-1,-1,-1,-1,-1,-1],"split_conditions":[4.8777714E-2,-1.0674E-2,4.5723107E-2,3.873581E-2,-4.477753E-1,8.185E-3,2.2970282E-1,3.782E-3,2.3881355E-2,3.703793E-2,4.08E-4,6.788E-3,4.658177E-2,-6.74E-4,6.1635138E-3,3.1264134E-2,-1.5472E-2,-1.1760645E-2,-2.2111803E-3,2.3798466E-2,-7.306E-3,1.778524E-2,3.9535005E-2,-4.7798143E-3,1.8757196E-3,4.10036E-2,-1.7013386E-3,-0E0,-2.5179023E-3,4.0514003E-3,-1.3848577E-3,6.657165E-4,-3.744398E-3,-1.3006497E-3,4.4783507E-3,1.1590424E-3,9.995927E-3,-8.133824E-3,-4.674195E-4,1.0942917E-3,4.2951605E-3,-1.2719591E-2,-5.498762E-3],"split_indices":[0,4,14,0,1,11,1,9,5,6,12,11,21,3,0,0,12,0,0,0,4,6,6,0,0,14,0,0,0,0,0,0,0,0,0,0,0,0,0,0,0,0,0],"split_type":[0,0,0,0,0,0,0,0,0,0,0,0,0,0,0,0,0,0,0,0,0,0,0,0,0,0,0,0,0,0,0,0,0,0,0,0,0,0,0,0,0,0,0],"sum_hessian":[1.85E2,1.6E2,2.5E1,3.2E1,1.28E2,1.9E1,6E0,2.6E1,6E0,1.9E1,1.09E2,5E0,1.4E1,4E0,2E0,6E0,2E1,4E0,2E0,1.3E1,6E0,5.7E1,5.2E1,3E0,2E0,1.2E1,2E0,2E0,2E0,4E0,2E0,2E0,1.8E1,4E0,9E0,1E0,5E0,4E0,5.3E1,3.3E1,1.9E1,1E1,2E0],"tree_param":{"num_deleted":"0","num_feature":"25","num_nodes":"43","size_leaf_vector":"1"}},{"base_weights":[-1.4504784E-3,-2.6256776E-1,6.833561E-2,-4.842112E-1,-1.03700325E-1,-1.4888768E-1,1.07257135E-1,-2.4291725E-1,-6.26137E-1,-2.0889378E-1,5.9084304E-2,-4.1743092E-2,-4.3623516E-1,7.179183E-2,3.1826332E-1,-6.398964E-3,-1.7423643E-3,-1.3603019E-2,-4.2405427E-3,-4.160793E-2,-3.5183227E-1,2.0072497E-1,-2.2804514E-3,3.7568383E-2,-2.3445229E-1,-9.830823E-3,-0E0,3.0174387E-1,3.5472203E-2,4.0981013E-1,1.3728008E-1,2.7026145E-3,-1.9106276E-3,-3.36292E-3,-8.353154E-3,1.2811698E-3,5.983749E-3,6.246816E-3,-2.6629228E-4,-6.249713E-3,-1.3099119E-4,2.7349603E-3,9.864854E-3,3.7971028E-4,1.1526572E-2,2.919536E-3,9.396343E-3,-0E0,3.2069408E-3],"categories":[],"categories_nodes":[],"categories_segments":[],"categories_sizes":[],"default_left":[0,0,0,0,0,0,0,0,0,0,0,0,0,0,0,0,0,0,0,0,0,0,0,0,0,0,0,0,0,0,0,0,0,0,0,0,0,0,0,0,0,0,0,0,0,0,0,0,0],"id":15,"left_children":[1,3,5,7,9,11,13,15,17,19,21,23,25,27,29,-1,-1,-1,-1,31,33,35,-1,37,39,-1,-1,41,43,45,47,-1,-1,-1,-1,-1,-1,-1,-1,-1,-1,-1,-1,-1,-1,-1,-1,-1,-1],"loss_changes":[3.1855702E0,1.2026427E0,1.1427388E0,3.655734E-1,4.022576E-1,5.342921E-1,8.0159664E-1,1.2363464E-2,1.6845202E-1,2.677076E-1,2.1684965E-1,2.6281595E-1,1.22020245E-1,7.7770513E-1,1.7185378E-1,0E0,0E0,0E0,0E0,6.898903E-2,2.7720332E-3,1.1082724E-2,0E0,2.041921E-1,5.065337E-2,0E0,0E0,3.3374667E-1,6.624721E-1,1.0784781E-1,2.9723905E-2,0E0,0E0,0E0,0E0,0E0,0E0,0E0,0E0,0E0,0E0,0E0,0E0,0E0,0E0,0E0,0E0,0E0,0E0],"parents":[2147483647,0,0,1,1,2,2,3,3,4,4,5,5,6,6,7,7,8,8,9,9,10,10,11,11,12,12,13,13,14,14,19,19,20,20,21,21,23,23,24,24,27,27,28,28,29,29,30,30],"right_children":[2,4,6,8,10,12,14,16,18,20,22,24,26,28,30,-1,-1,-1,-1,32,34,36,-1,38,40,-1,-1,42,44,46,48,-1,-1,-1,-1,-1,-1,-1,-1,-1,-1,-1,-1,-1,-1,-1,-1,-1,-1],"split_conditions":[-1.1297E-2,-5.733E-3,2.1667521E-2,1.1175E-2,1.608E-3,3.86296E-2,4.7716733E-2,-1.7685E-2,3.256819E-2,3.4000013E-2,6.539E-3,3.6857587E-1,4.445E-3,-4.477753E-1,1.908E-2,-6.398964E-3,-1.7423643E-3,-1.3603019E-2,-4.2405427E-3,3.5739467E-2,3.399E-3,-1.983E-3,-2.2804514E-3,-6.7283356E-1,3.3349052E-2,-9.830823E-3,-0E0,3.703793E-2,9.9258333E-1,-9.829E-3,-6.3065577E-1,2.7026145E-3,-1.9106276E-3,-3.36292E-3,-8.353154E-3,1.2811698E-3,5.983749E-3,6.246816E-3,-2.6629228E-4,-6.249713E-3,-1.3099119E-4,2.7349603E-3,9.864854E-3,3.7971028E-4,1.1526572E-2,2.919536E-3,9.396343E-3,-0E0,3.2069408E-3],"split_indices":[2,4,6,11,22,20,21,2,20,21,22,1,2,1,11,0,0,0,0,0,11,4,0,19,0,0,0,6,19,3,1,0,0,0,0,0,0,0,0,0,0,0,0,0,0,0,0,0,0],"split_type":[0,0,0,0,0,0,0,0,0,0,0,0,0,0,0,0,0,0,0,0,0,0,0,0,0,0,0,0,0,0,0,0,0,0,0,0,0,0,0,0,0,0,0,0,0,0,0,0,0],"sum_hessian":[1.73E2,3.7E1,1.36E2,1.5E1,2.2E1,2E1,1.16E2,6E0,9E0,1.4E1,8E0,1.5E1,5E0,1E2,1.6E1,3E0,3E0,7E0,2E0,7E0,7E0,5E0,3E0,1E1,5E0,4E0,1E0,1.3E1,8.7E1,1E1,6E0,1E0,6E0,3E0,4E0,3E0,2E0,2E0,8E0,3E0,2E0,8E0,5E0,8.5E1,2E0,3E0,7E0,1E0,5E0],"tree_param":{"num_deleted":"0","num_feature":"25","num_nodes":"49","size_leaf_vector":"1"}},{"base_weights":[-1.5682878E-2,-1.288072E-2,-1.7296392E-4,3.787372E-2,-1.592076E-1,1.3170698E-1,-2.560959E-2,-2.3480287E-1,1.9036353E-1,4.3332603E-2,3.1343952E-1,-1.7793453E-1,2.4089118E-2,-1.4341122E-1,-5.719642E-1,-0E0,5.0447066E-3,-0E0,6.1585275E-3,2.843283E-3,9.03823E-3,-4.076385E-3,2.004654E-3,-2.480843E-5,4.234927E-3,-3.8441885E-3,4.0598405E-3,-1.2838459E-2,-5.2674464E-3],"categories":[],"categories_nodes":[],"categories_segments":[],"categories_sizes":[],"default_left":[0,0,0,0,0,0,0,0,0,0,0,0,0,0,0,0,0,0,0,0,0,0,0,0,0,0,0,0,0],"id":16,"left_children":[1,-1,3,5,7,9,11,13,15,17,19,21,23,25,27,-1,-1,-1,-1,-1,-1,-1,-1,-1,-1,-1,-1,-1,-1],"loss_changes":[1.797206E0,0E0,1.1219138E0,8.8778174E-1,9.5890707E-1,9.02825E-1,6.772704E-1,8.024894E-1,6.5256506E-2,4.4963267E-1,3.9950955E-1,2.4868071E-1,3.6138973E-1,5.055003E-1,2.2116065E-2,0E0,0E0,0E0,0E0,0E0,0E0,0E0,0E0,0E0,0E0,0E0,0E0,0E0,0E0],"parents":[2147483647,0,0,2,2,3,3,4,4,5,5,6,6,7,7,8,8,9,9,10,10,11,11,12,12,13,13,14,14],"right_children":[2,-1,4,6,8,10,12,14,16,18,20,22,24,26,28,-1,-1,-1,-1,-1,-1,-1,-1,-1,-1,-1,-1,-1,-1],"split_conditions":[-1.9294E-2,-1.288072E-2,4.4608463E-2,7.823E-3,5.415714E-1,8.54E-3,-6.3430816E-1,6.866777E-1,4.7322802E-2,2.5593E-2,3.5223827E-2,5.345452E-2,9.10985E-1,3.9601795E-2,-9.789E-3,-0E0,5.0447066E-3,-0E0,6.1585275E-3,2.843283E-3,9.03823E-3,-4.076385E-3,2.004654E-3,-2.480843E-5,4.234927E-3,-3.8441885E-3,4.0598405E-3,-1.2838459E-2,-5.2674464E-3],"split_indices":[3,0,0,9,16,4,16,19,0,17,14,14,8,5,2,0,0,0,0,0,0,0,0,0,0,0,0,0,0],"split_type":[0,0,0,0,0,0,0,0,0,0,0,0,0,0,0,0,0,0,0,0,0,0,0,0,0,0,0,0,0],"sum_hessian":[1.86E2,4E0,1.82E2,1.46E2,3.6E1,6E1,8.6E1,3E1,6E0,4.1E1,1.9E1,2.2E1,6.4E1,2.4E1,6E0,2E0,4E0,3.6E1,5E0,1E1,9E0,2E1,2E0,5.6E1,8E0,2.1E1,3E0,4E0,2E0],"tree_param":{"num_deleted":"0","num_feature":"25","num_nodes":"29","size_leaf_vector":"1"}},{"base_weights":[3.2921974E-2,-1.5486442E-1,7.061484E-2,-3.9421022E-1,-1.9922862E-2,1.1709519E-2,1.7721839E-1,-3.942226E-3,-9.300633E-3,-1.6985065E-1,2.7651542E-1,6.2223822E-2,-2.3336719E-1,-1.4663978E-1,2.2316578E-1,-3.0645749E-2,-8.358224E-3,5.2976055E-4,6.797475E-3,-1.0965564E-4,1.7987114E-1,-3.945791E-1,-1.7473804E-3,-0E0,-5.7710907E-3,2.6885667E-1,-0E0,2.7468756E-3,-1.994548E-3,-3.2291215E-4,1.3126138E-2,1.500611E-3,7.3043844E-3,-7.700243E-5,-9.143002E-3,1.7928467E-3,-2.2112061E-3,-0E0,2.9821224E-5,9.912938E-4,6.0902936E-3,-1.2471179E-3,1.4799202E-3],"categories":[],"categories_nodes":[],"categories_segments":[],"categories_sizes":[],"default_left":[0,0,0,0,0,0,0,0,0,0,0,0,0,0,0,0,0,0,0,0,0,0,0,0,0,0,0,0,0,0,0,0,0,0,0,0,0,0,0,0,0,0,0],"id":17,"left_children":[1,3,5,7,9,11,13,-1,-1,15,17,19,21,23,25,27,-1,-1,-1,29,31,33,35,37,-1,39,41,-1,-1,-1,-1,-1,-1,-1,-1,-1,-1,-1,-1,-1,-1,-1,-1],"loss_changes":[1.2455621E0,8.6605203E-1,9.0344864E-1,5.989492E-2,8.262635E-1,1.1716802E0,7.868252E-1,0E0,0E0,4.0941054E-1,5.604276E-2,6.2463963E-1,5.2989155E-1,1.4844666E-1,4.558525E-1,1.10786065E-1,0E0,0E0,0E0,4.932283E-1,5.2027845E-1,2.2378027E-1,8.106818E-2,2.469584E-6,0E0,3.651271E-1,4.1604348E-2,0E0,0E0,0E0,0E0,0E0,0E0,0E0,0E0,0E0,0E0,0E0,0E0,0E0,0E0,0E0,0E0],"parents":[2147483647,0,0,1,1,2,2,3,3,4,4,5,5,6,6,9,9,10,10,11,11,12,12,13,13,14,14,15,15,19,19,20,20,21,21,22,22,23,23,25,25,26,26],"right_children":[2,4,6,8,10,12,14,-1,-1,16,18,20,22,24,26,28,-1,-1,-1,30,32,34,36,38,-1,40,42,-1,-1,-1,-1,-1,-1,-1,-1,-1,-1,-1,-1,-1,-1,-1,-1],"split_conditions":[-1.3163E-2,-1.2327E-2,7.202E-3,2.0685E-2,5.53E-4,3.6212746E-2,1.8350398E-2,-3.942226E-3,-9.300633E-3,4.692999E-2,-1.6152E-2,3.81047E-2,3.5745066E-2,3.025618E-2,7.648985E-1,3.0702233E-2,-8.358224E-3,5.2976055E-4,6.797475E-3,9.9258333E-1,3.0112678E-1,-1.0171E-2,2.4107799E-2,5.773E-3,-5.7710907E-3,-1.0409E-2,4.56E-3,2.7468756E-3,-1.994548E-3,-3.2291215E-4,1.3126138E-2,1.500611E-3,7.3043844E-3,-7.700243E-5,-9.143002E-3,1.7928467E-3,-2.2112061E-3,-0E0,2.9821224E-5,9.912938E-4,6.0902936E-3,-1.2471179E-3,1.4799202E-3],"split_indices":[2,4,12,17,22,20,5,0,0,0,12,6,21,14,24,0,0,0,0,19,10,3,23,2,0,22,22,0,0,0,0,0,0,0,0,0,0,0,0,0,0,0,0],"split_type":[0,0,0,0,0,0,0,0,0,0,0,0,0,0,0,0,0,0,0,0,0,0,0,0,0,0,0,0,0,0,0,0,0,0,0,0,0,0,0,0,0,0,0],"sum_hessian":[1.78E2,2.9E1,1.49E2,1E1,1.9E1,9.7E1,5.2E1,4E0,6E0,1.3E1,6E0,8.1E1,1.6E1,6E0,4.6E1,9E0,4E0,2E0,4E0,5.2E1,2.9E1,9E0,7E0,3E0,3E0,3.8E1,8E0,2E0,7E0,5.1E1,1E0,2E1,9E0,2E0,7E0,3E0,4E0,2E0,1E0,8E0,3E1,4E0,4E0],"tree_param":{"num_deleted":"0","num_feature":"25","num_nodes":"43","size_leaf_vector":"1"}},{"base_weights":[-1.2045572E-2,-2.6271522E-2,1.3361035E-2,-5.1698864E-1,-6.432452E-3,-3.7392387E-3,-1.2037705E-2,1.0553942E-2,-3.947739E-1,2.7312808E-2,-4.4136688E-1,-9.874544E-3,-3.2357802E-3,-4.3717056E-4,2.6449424E-3,-0E0,-9.776448E-3],"categories":[],"categories_nodes":[],"categories_segments":[],"categories_sizes":[],"default_left":[0,0,0,0,0,0,0,0,0,0,0,0,0,0,0,0,0],"id":18,"left_children":[1,3,-1,5,7,-1,-1,9,11,13,15,-1,-1,-1,-1,-1,-1],"loss_changes":[1.5756319E0,1.4976581E0,0E0,8.359957E-2,1.1011369E0,0E0,0E0,1.0654843E0,7.939792E-2,8.3801466E-1,8.765948E-2,0E0,0E0,0E0,0E0,0E0,0E0],"parents":[2147483647,0,0,1,1,3,3,4,4,7,7,8,8,9,9,10,10],"right_children":[2,4,-1,6,8,-1,-1,10,12,14,16,-1,-1,-1,-1,-1,-1],"split_conditions":[9.8385805E-1,-9.1625214E-1,1.3361035E-2,5.925E-3,5.7371944E-2,-3.7392387E-3,-1.2037705E-2,9.682277E-1,-6.169E-3,3.230197E-2,1.4385044E-2,-9.874544E-3,-3.2357802E-3,-4.3717056E-4,2.6449424E-3,-0E0,-9.776448E-3],"split_indices":[19,8,0,9,0,0,0,10,12,5,7,0,0,0,0,0,0],"split_type":[0,0,0,0,0,0,0,0,0,0,0,0,0,0,0,0,0],"sum_hessian":[1.66E2,1.63E2,3E0,6E0,1.57E2,2E0,4E0,1.5E2,7E0,1.45E2,5E0,4E0,3E0,9.9E1,4.6E1,1E0,4E0],"tree_param":{"num_deleted":"0","num_feature":"25","num_nodes":"17","size_leaf_vector":"1"}},{"base_weights":[-1.5704842E-2,-1.1860567E-1,8.762734E-2,-6.8949595E-2,-3.3566156E-1,1.8469101E-1,-2.027715E-2,-0E0,-2.1248978E-1,-4.3898234E-1,-8.921581E-3,-4.1050706E-2,2.4760835E-1,-7.99121E-3,9.210765E-3,-5.0810535E-2,2.053393E-1,3.057237E-2,-2.75972E-1,-4.7949553E-1,-0E0,-9.5378375E-4,-0E0,-1.013409E-2,-0E0,-1.9240279E-3,2.8565297E-1,6.287553E-2,-1.2688395E-1,-2.0742011E-3,3.4894908E-3,5.1757176E-3,2.6030443E-4,-0E0,2.788346E-3,-8.746181E-3,-3.212825E-3,-3.9594797E-3,-1.1986477E-2,-1.3740567E-3,2.1548432E-3,6.6879797E-3,4.325075E-4,2.0915256E-3,-7.832713E-4,8.363353E-4,-4.568896E-3],"categories":[],"categories_nodes":[],"categories_segments":[],"categories_sizes":[],"default_left":[0,0,0,0,0,0,0,0,0,0,0,0,0,0,0,0,0,0,0,0,0,0,0,0,0,0,0,0,0,0,0,0,0,0,0,0,0,0,0,0,0,0,0,0,0,0,0],"id":19,"left_children":[1,3,5,7,9,11,13,15,17,19,21,23,25,-1,27,29,31,33,35,37,-1,-1,-1,-1,39,-1,41,43,45,-1,-1,-1,-1,-1,-1,-1,-1,-1,-1,-1,-1,-1,-1,-1,-1,-1,-1],"loss_changes":[1.7703522E0,8.3640575E-1,8.86857E-1,6.653129E-1,4.3004847E-1,6.6013896E-1,5.193542E-1,4.7758308E-1,3.8128662E-1,1.7939925E-1,7.260306E-3,2.700289E-1,4.9611783E-1,0E0,2.4471317E-1,5.0896335E-1,6.742573E-2,1.7851993E-2,2.4764752E-1,2.6889038E-1,0E0,0E0,0E0,0E0,7.255005E-2,0E0,4.978056E-1,1.3994835E-1,2.0874481E-1,0E0,0E0,0E0,0E0,0E0,0E0,0E0,0E0,0E0,0E0,0E0,0E0,0E0,0E0,0E0,0E0,0E0,0E0],"parents":[2147483647,0,0,1,1,2,2,3,3,4,4,5,5,6,6,7,7,8,8,9,9,10,10,11,11,12,12,14,14,15,15,16,16,17,17,18,18,19,19,24,24,26,26,27,27,28,28],"right_children":[2,4,6,8,10,12,14,16,18,20,22,24,26,-1,28,30,32,34,36,38,-1,-1,-1,-1,40,-1,42,44,46,-1,-1,-1,-1,-1,-1,-1,-1,-1,-1,-1,-1,-1,-1,-1,-1,-1,-1],"split_conditions":[2.062E-3,3.9313708E-2,1.4268E-2,1.217E-2,2.2539057E-1,-4.9251628E-1,-3.88017E-1,4.4894896E-2,7.057E-3,1.4574E-2,8.5183823E-1,4.445E-3,1.5458801E-2,-7.99121E-3,7.403132E-1,6.4468735E-1,8.873E-3,4.6578873E-2,-7.9615194E-1,5.925E-3,-0E0,-9.5378375E-4,-0E0,-1.013409E-2,2.6002899E-2,-1.9240279E-3,7.648985E-1,2.3701E-2,2.0590309E-2,-2.0742011E-3,3.4894908E-3,5.1757176E-3,2.6030443E-4,-0E0,2.788346E-3,-8.746181E-3,-3.212825E-3,-3.9594797E-3,-1.1986477E-2,-1.3740567E-3,2.1548432E-3,6.6879797E-3,4.325075E-4,2.0915256E-3,-7.832713E-4,8.363353E-4,-4.568896E-3],"split_indices":[2,7,11,9,16,24,8,14,17,3,1,2,23,0,1,16,9,0,8,9,0,0,0,0,5,0,24,17,0,0,0,0,0,0,0,0,0,0,0,0,0,0,0,0,0,0,0],"split_type":[0,0,0,0,0,0,0,0,0,0,0,0,0,0,0,0,0,0,0,0,0,0,0,0,0,0,0,0,0,0,0,0,0,0,0,0,0,0,0,0,0,0,0,0,0,0,0],"sum_hessian":[1.66E2,8.4E1,8.2E1,6.9E1,1.5E1,4.4E1,3.8E1,4.7E1,2.2E1,1.1E1,4E0,9E0,3.5E1,3E0,3.5E1,3.8E1,9E0,4E0,1.8E1,1E1,1E0,3E0,1E0,1E0,8E0,3E0,3.2E1,2.6E1,9E0,3.1E1,7E0,6E0,3E0,3E0,1E0,6E0,1.2E1,4E0,6E0,4E0,4E0,2.5E1,7E0,1.9E1,7E0,3E0,6E0],"tree_param":{"num_deleted":"0","num_feature":"25","num_nodes":"47","size_leaf_vector":"1"}},{"base_weights":[2.035766E-2,2.0645177E-1,-2.5248036E-2,7.777061E-2,3.5808584E-1,-4.858284E-1,2.4229246E-3,2.4774404E-1,-7.177955E-3,6.758292E-2,5.9097195E-1,-1.0979847E-2,-5.2069193E-3,-1.5707451E-1,8.609937E-2,-0E0,6.7609125E-3,-2.256945E-1,1.2455797E-1,3.6378345E-3,-2.9888207E-3,1.3717805E-3,1.2158596E-2,-2.1262431E-1,2.3101763E-1,5.7653822E-2,7.109563E-3,-0E0,-6.2859645E-3,-0E0,2.8655382E-3,-3.6591443E-4,-6.5561454E-3,-0E0,5.741611E-3,2.0254957E-3,-9.5216813E-4],"categories":[],"categories_nodes":[],"categories_segments":[],"categories_sizes":[],"default_left":[0,0,0,0,0,0,0,0,0,0,0,0,0,0,0,0,0,0,0,0,0,0,0,0,0,0,0,0,0,0,0,0,0,0,0,0,0],"id":20,"left_children":[1,3,5,7,9,11,13,15,17,19,21,-1,-1,23,25,-1,-1,27,29,-1,-1,-1,-1,31,33,35,-1,-1,-1,-1,-1,-1,-1,-1,-1,-1,-1],"loss_changes":[1.4651777E0,5.891396E-1,1.8029221E0,3.15341E-1,9.0257335E-1,1.1556625E-2,1.6828685E0,2.0503801E-1,3.6267462E-1,2.013922E-1,8.491707E-2,0E0,0E0,9.238781E-1,6.157991E-1,0E0,0E0,7.449332E-2,2.8213017E-2,0E0,0E0,0E0,0E0,9.139904E-1,9.933898E-2,4.1717964E-1,0E0,0E0,0E0,0E0,0E0,0E0,0E0,0E0,0E0,0E0,0E0],"parents":[2147483647,0,0,1,1,2,2,3,3,4,4,5,5,6,6,7,7,8,8,9,9,10,10,13,13,14,14,17,17,18,18,23,23,24,24,25,25],"right_children":[2,4,6,8,10,12,14,16,18,20,22,-1,-1,24,26,-1,-1,28,30,-1,-1,-1,-1,32,34,36,-1,-1,-1,-1,-1,-1,-1,-1,-1,-1,-1],"split_conditions":[3.615E-3,2.6881473E-2,1.3106481E-2,7.13E-3,1.0808411E-1,7.983E-3,-5.733E-3,1.938367E-2,1.1074901E-1,3.180913E-2,-1.6223E-2,-1.0979847E-2,-5.2069193E-3,4.0177427E-2,1.4494E-2,-0E0,6.7609125E-3,1.6913585E-2,1.6754275E-2,3.6378345E-3,-2.9888207E-3,1.3717805E-3,1.2158596E-2,3.610378E-2,-1.5053E-2,3.1210022E-2,7.109563E-3,-0E0,-6.2859645E-3,-0E0,2.8655382E-3,-3.6591443E-4,-6.5561454E-3,-0E0,5.741611E-3,2.0254957E-3,-9.5216813E-4],"split_indices":[9,7,23,11,10,12,4,0,19,0,3,0,0,5,12,0,0,0,0,0,0,0,0,15,3,7,0,0,0,0,0,0,0,0,0,0,0],"split_type":[0,0,0,0,0,0,0,0,0,0,0,0,0,0,0,0,0,0,0,0,0,0,0,0,0,0,0,0,0,0,0,0,0,0,0,0,0],"sum_hessian":[1.69E2,3.4E1,1.35E2,1.9E1,1.5E1,8E0,1.27E2,7E0,1.2E1,7E0,8E0,5E0,3E0,4.3E1,8.4E1,2E0,5E0,5E0,7E0,5E0,2E0,1E0,7E0,3.8E1,5E0,7.7E1,7E0,2E0,3E0,1E0,6E0,1.6E1,2.2E1,1E0,4E0,5.4E1,2.3E1],"tree_param":{"num_deleted":"0","num_feature":"25","num_nodes":"37","size_leaf_vector":"1"}},{"base_weights":[-1.5115479E-2,3.5145244E-1,-5.617343E-2,4.9546036E-1,8.3034046E-2,-1.244215E-2,-3.8212612E-2,3.6895392E-3,1.0425907E-2,-8.045616E-2,3.9354563E-3,-3.4743848E-1,-1.1152642E-2,-0E0,-2.990158E-3,-4.8897523E-1,-0E0,9.691279E-3,-3.5553733E-1,-1.1257759E-2,-4.9029724E-3,3.385429E-4,-0E0,4.7429663E-4,-1.0450478E-2,-2.0629214E-3,-1.0622166E-2],"categories":[],"categories_nodes":[],"categories_segments":[],"categories_sizes":[],"default_left":[0,0,0,0,0,0,0,0,0,0,0,0,0,0,0,0,0,0,0,0,0,0,0,0,0,0,0],"id":21,"left_children":[1,3,5,7,9,-1,11,-1,-1,13,-1,15,17,-1,-1,19,21,23,25,-1,-1,-1,-1,-1,-1,-1,-1],"loss_changes":[2.4029112E0,5.1987636E-1,1.4645423E0,3.564596E-2,1.436159E-1,0E0,1.1354578E0,0E0,0E0,1.1882719E-2,0E0,5.849259E-1,1.0064821E0,0E0,0E0,4.7226667E-2,3.1827335E-4,9.7378546E-1,2.8932834E-1,0E0,0E0,0E0,0E0,0E0,0E0,0E0,0E0],"parents":[2147483647,0,0,1,1,2,2,3,3,4,4,6,6,9,9,11,11,12,12,15,15,16,16,17,17,18,18],"right_children":[2,4,6,8,10,-1,12,-1,-1,14,-1,16,18,-1,-1,20,22,24,26,-1,-1,-1,-1,-1,-1,-1,-1],"split_conditions":[-4.477753E-1,3.1107651E-2,-1.9294E-2,-1.475E-3,8.9239724E-2,-1.244215E-2,1.3106481E-2,3.6895392E-3,1.0425907E-2,-7.2654396E-1,3.9354563E-3,-6.578758E-2,5.060216E-2,-0E0,-2.990158E-3,4.088E-3,-1.5996E-2,1.9569E-2,-1.3694E-2,-1.1257759E-2,-4.9029724E-3,3.385429E-4,-0E0,4.7429663E-4,-1.0450478E-2,-2.0629214E-3,-1.0622166E-2],"split_indices":[1,20,3,22,24,0,23,0,0,1,0,16,15,0,0,2,2,9,3,0,0,0,0,0,0,0,0],"split_type":[0,0,0,0,0,0,0,0,0,0,0,0,0,0,0,0,0,0,0,0,0,0,0,0,0,0,0],"sum_hessian":[1.63E2,1.6E1,1.47E2,1E1,6E0,4E0,1.43E2,2E0,8E0,2E0,4E0,1.1E1,1.32E2,1E0,1E0,8E0,3E0,1.24E2,8E0,5E0,3E0,1E0,2E0,1.21E2,3E0,4E0,4E0],"tree_param":{"num_deleted":"0","num_feature":"25","num_nodes":"27","size_leaf_vector":"1"}},{"base_weights":[-5.6724565E-4,-1.7668466E-1,6.0979202E-2,-4.093294E-1,-6.6121496E-2,1.487862E-4,1.5959987E-1,-5.034274E-1,-7.4931225E-3,-0E0,-2.1472527E-1,-1.2608223E-1,5.503708E-2,2.0282874E-1,-1.694363E-1,-1.3249334E-2,-7.762927E-3,-2.4031564E-3,1.1455644E-3,-3.5935506E-2,7.4032694E-3,-5.3050434E-3,-0E0,-2.1527E-1,4.838067E-3,1.5169491E-1,-1.21303145E-2,1.0709452E-2,2.5006032E-1,-8.5440197E-4,-9.424668E-3,-2.6992469E-3,8.1024505E-4,-5.0066235E-3,2.131258E-3,8.749121E-3,1.8859712E-3,-1.4884128E-3,1.3599695E-3,-2.809154E-3,3.259966E-3,1.8437369E-3,5.866151E-3],"categories":[],"categories_nodes":[],"categories_segments":[],"categories_sizes":[],"default_left":[0,0,0,0,0,0,0,0,0,0,0,0,0,0,0,0,0,0,0,0,0,0,0,0,0,0,0,0,0,0,0,0,0,0,0,0,0,0,0,0,0,0,0],"id":22,"left_children":[1,3,5,7,9,11,13,15,17,19,21,23,25,27,29,-1,-1,-1,-1,31,-1,-1,-1,33,-1,35,37,39,41,-1,-1,-1,-1,-1,-1,-1,-1,-1,-1,-1,-1,-1,-1],"loss_changes":[1.8732575E0,1.0764557E0,7.286651E-1,4.4229054E-1,3.2553586E-1,5.3525156E-1,6.742126E-1,1.3417006E-2,3.555085E-2,3.289395E-1,1.6416171E-1,7.748594E-1,3.8735253E-1,3.3666885E-1,1.1122902E-1,0E0,0E0,0E0,0E0,1.7579095E-1,0E0,0E0,0E0,3.2809055E-1,0E0,2.928626E-1,1.7894918E-1,2.341843E-1,2.2879934E-1,0E0,0E0,0E0,0E0,0E0,0E0,0E0,0E0,0E0,0E0,0E0,0E0,0E0,0E0],"parents":[2147483647,0,0,1,1,2,2,3,3,4,4,5,5,6,6,7,7,8,8,9,9,10,10,11,11,12,12,13,13,14,14,19,19,23,23,25,25,26,26,27,27,28,28],"right_children":[2,4,6,8,10,12,14,16,18,20,22,24,26,28,30,-1,-1,-1,-1,32,-1,-1,-1,34,-1,36,38,40,42,-1,-1,-1,-1,-1,-1,-1,-1,-1,-1,-1,-1,-1,-1],"split_conditions":[-1.0833E-2,-9.059E-3,3.81047E-2,-2.2963484E-1,3.773933E-2,-8.603246E-2,4.9216017E-2,-1.1441E-2,4.5515575E-2,4.5329355E-2,-7.875E-3,3.8169485E-2,3.141351E-2,-7.336E-3,3.8687807E-2,-1.3249334E-2,-7.762927E-3,-2.4031564E-3,1.1455644E-3,2.75867E-1,7.4032694E-3,-5.3050434E-3,-0E0,2.0247E-2,4.838067E-3,2.4304774E-2,5.6543636E-1,8.091555E-2,-6.345496E-1,-8.5440197E-4,-9.424668E-3,-2.6992469E-3,8.1024505E-4,-5.0066235E-3,2.131258E-3,8.749121E-3,1.8859712E-3,-1.4884128E-3,1.3599695E-3,-2.809154E-3,3.259966E-3,1.8437369E-3,5.866151E-3],"split_indices":[2,13,6,8,7,18,15,4,0,6,4,0,15,4,0,0,0,0,0,24,0,0,0,13,0,14,18,19,16,0,0,0,0,0,0,0,0,0,0,0,0,0,0],"split_type":[0,0,0,0,0,0,0,0,0,0,0,0,0,0,0,0,0,0,0,0,0,0,0,0,0,0,0,0,0,0,0,0,0,0,0,0,0,0,0,0,0,0,0],"sum_hessian":[1.71E2,4.5E1,1.26E2,1.4E1,3.1E1,7.9E1,4.7E1,1.1E1,3E0,2.1E1,1E1,2.3E1,5.6E1,4.2E1,5E0,3E0,8E0,2E0,1E0,1.9E1,2E0,8E0,2E0,1.9E1,4E0,2.4E1,3.2E1,9E0,3.3E1,4E0,1E0,9E0,1E1,1.7E1,2E0,3E0,2.1E1,1.9E1,1.3E1,4E0,5E0,1E1,2.3E1],"tree_param":{"num_deleted":"0","num_feature":"25","num_nodes":"43","size_leaf_vector":"1"}},{"base_weights":[-8.9028926E-4,-6.377588E-2,1.3082114E-1,-1.4347714E-2,-5.059754E-2,4.2734116E-1,5.45511E-2,-5.034949E-3,-1.6772103E-1,9.982012E-3,1.0738E-1,1.6078833E-1,-9.533633E-2,-4.179487E-2,1.5759993E-1,6.1366804E-2,-2.3868287E-1,-0E0,3.209513E-3,5.2485573E-1,9.0062186E-2,-0E0,-2.2714981E-1,-1.955299E-3,1.0939636E-3,-0E0,5.0583626E-3,-3.7519156E-4,2.4272397E-3,-7.7733104E-3,-2.5024703E-3,2.161035E-3,1.1481422E-2,2.6153622E-3,-3.2549333E-3,4.1604782E-3,-8.0019986E-4,-9.097535E-3,-2.1757712E-3],"categories":[],"categories_nodes":[],"categories_segments":[],"categories_sizes":[],"default_left":[0,0,0,0,0,0,0,0,0,0,0,0,0,0,0,0,0,0,0,0,0,0,0,0,0,0,0,0,0,0,0,0,0,0,0,0,0,0,0],"id":23,"left_children":[1,3,5,-1,7,9,11,13,15,-1,17,19,21,23,25,27,29,-1,-1,31,33,35,37,-1,-1,-1,-1,-1,-1,-1,-1,-1,-1,-1,-1,-1,-1,-1,-1],"loss_changes":[1.4463377E0,9.573307E-1,1.1843438E0,0E0,6.00258E-1,2.3936534E-1,7.277182E-1,4.944095E-1,5.504281E-1,0E0,2.2619795E-2,5.90424E-1,2.4917406E-1,4.401459E-1,2.6692602E-1,5.6223404E-2,3.6418426E-1,0E0,0E0,9.284258E-3,2.8160286E-1,1.10361956E-1,1.2577498E-1,0E0,0E0,0E0,0E0,0E0,0E0,0E0,0E0,0E0,0E0,0E0,0E0,0E0,0E0,0E0,0E0],"parents":[2147483647,0,0,1,1,2,2,4,4,5,5,6,6,7,7,8,8,10,10,11,11,12,12,13,13,14,14,15,15,16,16,19,19,20,20,21,21,22,22],"right_children":[2,4,6,-1,8,10,12,14,16,-1,18,20,22,24,26,28,30,-1,-1,32,34,36,38,-1,-1,-1,-1,-1,-1,-1,-1,-1,-1,-1,-1,-1,-1,-1,-1],"split_conditions":[3.9535005E-2,-1.9294E-2,4.1729152E-2,-1.4347714E-2,2.1351E-2,6.711702E-1,3.8486686E-2,7.010417E-1,1.0537451E-2,9.982012E-3,8.602198E-1,-5.024635E-1,4.2716503E-2,1.9676873E-1,2.5053713E-2,-2.8411636E-1,2.3881355E-2,-0E0,3.209513E-3,3.062E-3,4.1704785E-2,1.3688E-2,3.9711718E-2,-1.955299E-3,1.0939636E-3,-0E0,5.0583626E-3,-3.7519156E-4,2.4272397E-3,-7.7733104E-3,-2.5024703E-3,2.161035E-3,1.1481422E-2,2.6153622E-3,-3.2549333E-3,4.1604782E-3,-8.0019986E-4,-9.097535E-3,-2.1757712E-3],"split_indices":[6,3,6,0,17,1,14,16,7,0,1,1,21,18,23,8,5,0,0,3,0,17,14,0,0,0,0,0,0,0,0,0,0,0,0,0,0,0,0],"split_type":[0,0,0,0,0,0,0,0,0,0,0,0,0,0,0,0,0,0,0,0,0,0,0,0,0,0,0,0,0,0,0,0,0,0,0,0,0,0,0],"sum_hessian":[1.76E2,1.2E2,5.6E1,2E0,1.18E2,1.1E1,4.5E1,8.6E1,3.2E1,8E0,3E0,2.7E1,1.8E1,7.1E1,1.5E1,7E0,2.5E1,1E0,2E0,4E0,2.3E1,1E1,8E0,4.5E1,2.6E1,6E0,9E0,2E0,5E0,9E0,1.6E1,1E0,3E0,2E1,3E0,2E0,8E0,2E0,6E0],"tree_param":{"num_deleted":"0","num_feature":"25","num_nodes":"39","size_leaf_vector":"1"}},{"base_weights":[3.433127E-2,-9.641383E-2,1.3278696E-1,-2.2790778E-2,-4.6259698E-1,1.379179E-2,2.3099709E-1,1.0600032E-1,-1.65849E-1,-5.2364564E-1,7.3072023E-4,-1.1147764E-1,1.8516362E-1,1.6632164E-1,4.683255E-1,1.6793942E-1,-2.8496557E-1,-7.7486254E-2,-4.3183634E-1,-1.1009012E-2,-3.4953326E-3,-2.1089149E-1,9.0899594E-2,6.0585145E-2,2.9269895E-1,1.3736127E-1,1.28051415E-2,1.0357671E-2,3.8876222E-3,1.0993485E-2,2.4619852E-3,-6.249209E-3,-0E0,-9.771302E-3,-5.258401E-4,-1.1317707E-2,-2.9526239E-3,-5.91804E-3,-5.289519E-4,3.775008E-3,-0E0,-0E0,3.663797E-3,-0E0,6.7271036E-3,3.4967277E-3,-2.0466363E-3],"categories":[],"categories_nodes":[],"categories_segments":[],"categories_sizes":[],"default_left":[0,0,0,0,0,0,0,0,0,0,0,0,0,0,0,0,0,0,0,0,0,0,0,0,0,0,0,0,0,0,0,0,0,0,0,0,0,0,0,0,0,0,0,0,0,0,0],"id":24,"left_children":[1,3,5,7,9,11,13,15,17,19,-1,21,23,25,27,29,31,33,35,-1,-1,37,39,41,43,45,-1,-1,-1,-1,-1,-1,-1,-1,-1,-1,-1,-1,-1,-1,-1,-1,-1,-1,-1,-1,-1],"loss_changes":[2.2460315E0,1.9122794E0,1.1269331E0,1.1525267E0,4.497831E-1,1.0000703E0,7.206998E-1,7.549696E-1,6.182967E-1,8.06911E-2,0E0,5.4354703E-1,2.0772111E-1,4.9478078E-1,9.663916E-2,3.1917113E-1,5.234778E-4,4.0831316E-1,1.9006932E-1,0E0,0E0,2.747305E-1,9.219359E-2,1.1240053E-1,1.486271E-1,4.8460364E-1,0E0,0E0,0E0,0E0,0E0,0E0,0E0,0E0,0E0,0E0,0E0,0E0,0E0,0E0,0E0,0E0,0E0,0E0,0E0,0E0,0E0],"parents":[2147483647,0,0,1,1,2,2,3,3,4,4,5,5,6,6,7,7,8,8,9,9,11,11,12,12,13,13,14,14,15,15,16,16,17,17,18,18,21,21,22,22,23,23,24,24,25,25],"right_children":[2,4,6,8,10,12,14,16,18,20,-1,22,24,26,28,30,32,34,36,-1,-1,38,40,42,44,46,-1,-1,-1,-1,-1,-1,-1,-1,-1,-1,-1,-1,-1,-1,-1,-1,-1,-1,-1,-1,-1],"split_conditions":[-3.723E-3,7.343007E-1,-1.71E-4,1.7058E-2,1.3108E-2,3.4775883E-2,3.6300994E-2,3.9282747E-2,3.6594927E-2,4.5176625E-2,7.3072023E-4,1.1412E-2,2.6751328E-2,3.625491E-2,1.7315E-2,1.35507025E-2,-9.789E-3,-2.4242E-2,3.950956E-2,-1.1009012E-2,-3.4953326E-3,7.513073E-2,1.6039675E-2,2.7629923E-2,-1.719E-2,3.284062E-2,1.28051415E-2,1.0357671E-2,3.8876222E-3,1.0993485E-2,2.4619852E-3,-6.249209E-3,-0E0,-9.771302E-3,-5.258401E-4,-1.1317707E-2,-2.9526239E-3,-5.91804E-3,-5.289519E-4,3.775008E-3,-0E0,-0E0,3.663797E-3,-0E0,6.7271036E-3,3.4967277E-3,-2.0466363E-3],"split_indices":[2,10,4,17,4,14,5,7,20,23,0,2,5,7,17,21,2,13,6,0,0,18,7,15,3,7,0,0,0,0,0,0,0,0,0,0,0,0,0,0,0,0,0,0,0,0,0],"split_type":[0,0,0,0,0,0,0,0,0,0,0,0,0,0,0,0,0,0,0,0,0,0,0,0,0,0,0,0,0,0,0,0,0,0,0,0,0,0,0,0,0,0,0,0,0,0,0],"sum_hessian":[1.74E2,7.4E1,1E2,6.2E1,1.2E1,4.6E1,5.4E1,3.2E1,3E1,1.1E1,1E0,2.6E1,2E1,4.3E1,1.1E1,2.8E1,4E0,2.3E1,7E0,9E0,2E0,1.8E1,8E0,1E1,1E1,4.1E1,2E0,8E0,3E0,2E0,2.6E1,3E0,1E0,2E0,2.1E1,4E0,3E0,1.1E1,7E0,4E0,4E0,6E0,4E0,2E0,8E0,3.5E1,6E0],"tree_param":{"num_deleted":"0","num_feature":"25","num_nodes":"47","size_leaf_vector":"1"}},{"base_weights":[-1.7265838E-2,1.1725211E-1,-9.699056E-2,2.7598125E-1,4.7280725E-2,-4.5355815E-2,-4.2943606E-1,4.639076E-1,4.3260194E-2,-8.925009E-2,1.3260356E-1,-1.8681435E-1,2.6106024E-2,-1.0706855E-2,-8.3565064E-2,-0E0,5.108389E-1,-1.2686187E-1,4.8577683E-3,-3.996781E-3,-0E0,2.4506772E-1,7.029282E-3,-1.3863152E-1,-1.0696027E-2,-1.9628696E-1,7.1355365E-2,3.759852E-2,-5.502096E-3,1.2347714E-2,6.231501E-3,-3.169867E-3,-0E0,-5.183634E-4,2.8414885E-3,2.1744182E-3,7.0002363E-3,-1.935556E-3,3.0861895E-3,-6.386261E-3,-1.4037081E-3,-1.595156E-3,-9.56155E-3,-7.424909E-4,2.5034144E-3,-0E0,2.8560932E-3],"categories":[],"categories_nodes":[],"categories_segments":[],"categories_sizes":[],"default_left":[0,0,0,0,0,0,0,0,0,0,0,0,0,0,0,0,0,0,0,0,0,0,0,0,0,0,0,0,0,0,0,0,0,0,0,0,0,0,0,0,0,0,0,0,0,0,0],"id":25,"left_children":[1,3,5,7,9,11,13,15,17,19,21,23,25,-1,27,-1,29,31,-1,-1,33,35,37,39,-1,41,43,45,-1,-1,-1,-1,-1,-1,-1,-1,-1,-1,-1,-1,-1,-1,-1,-1,-1,-1,-1],"loss_changes":[1.6910031E0,5.8908296E-1,1.6356547E0,6.570481E-1,4.8500583E-1,9.0686285E-1,4.9562788E-1,1.5075862E-1,3.115279E-1,1.9103768E-1,3.2422262E-1,4.250183E-1,5.5230653E-1,0E0,1.4303021E-1,0E0,3.7267685E-2,1.9334003E-2,0E0,0E0,4.932005E-2,1.276393E-1,2.308801E-1,2.7554548E-1,0E0,2.1046647E-1,3.370127E-1,1.9825278E-2,0E0,0E0,0E0,0E0,0E0,0E0,0E0,0E0,0E0,0E0,0E0,0E0,0E0,0E0,0E0,0E0,0E0,0E0,0E0],"parents":[2147483647,0,0,1,1,2,2,3,3,4,4,5,5,6,6,7,7,8,8,9,9,10,10,11,11,12,12,14,14,16,16,17,17,20,20,21,21,22,22,23,23,25,25,26,26,27,27],"right_children":[2,4,6,8,10,12,14,16,18,20,22,24,26,-1,28,-1,30,32,-1,-1,34,36,38,40,-1,42,44,46,-1,-1,-1,-1,-1,-1,-1,-1,-1,-1,-1,-1,-1,-1,-1,-1,-1,-1,-1],"split_conditions":[9.57E-3,-4.477753E-1,7.343007E-1,3.900883E-2,-6.08E-3,-4.14E-3,8.9574414E-1,-1.9156E-2,-1.885E-3,-3.935E-3,4.634555E-2,3.8619645E-2,-1.2259E-2,-1.0706855E-2,2.5225353E-1,-0E0,3.9430127E-1,2.7681306E-2,4.8577683E-3,-3.996781E-3,-1.4479E-2,-6.692E-3,4.1906986E-2,-2.8411636E-1,-1.0696027E-2,1.8006E-2,-3.9346054E-1,2.0745946E-2,-5.502096E-3,1.2347714E-2,6.231501E-3,-3.169867E-3,-0E0,-5.183634E-4,2.8414885E-3,2.1744182E-3,7.0002363E-3,-1.935556E-3,3.0861895E-3,-6.386261E-3,-1.4037081E-3,-1.595156E-3,-9.56155E-3,-7.424909E-4,2.5034144E-3,-0E0,2.8560932E-3],"split_indices":[11,1,10,14,13,12,10,4,12,2,8,7,22,0,1,0,8,0,0,0,13,12,21,8,0,17,10,0,0,0,0,0,0,0,0,0,0,0,0,0,0,0,0,0,0,0,0],"split_type":[0,0,0,0,0,0,0,0,0,0,0,0,0,0,0,0,0,0,0,0,0,0,0,0,0,0,0,0,0,0,0,0,0,0,0,0,0,0,0,0,0,0,0,0,0,0,0],"sum_hessian":[1.58E2,5.8E1,1E2,1.7E1,4.1E1,8.7E1,1.3E1,9E0,8E0,1.5E1,2.6E1,3E1,5.7E1,9E0,4E0,1E0,8E0,4E0,4E0,7E0,8E0,1.3E1,1.3E1,2.7E1,3E0,9E0,4.8E1,2E0,2E0,4E0,4E0,3E0,1E0,6E0,2E0,7E0,6E0,7E0,6E0,6E0,2.1E1,7E0,2E0,1.6E1,3.2E1,1E0,1E0],"tree_param":{"num_deleted":"0","num_feature":"25","num_nodes":"47","size_leaf_vector":"1"}},{"base_weights":[-1.1999025E-2,3.1548608E-2,-2.2670871E-1,-3.495928E-1,4.9354985E-2,6.885813E-3,-2.9852885E-1,-8.48679E-3,-0E0,1.04756124E-1,-4.4742394E-2,-1.3955918E-1,-4.5661685E-1,7.651377E-2,3.6587575E-1,3.454733E-2,-2.2388501E-1,-6.61046E-2,-9.3946615E-3,-4.4440795E-3,-9.607782E-3,5.9629115E-3,9.7509415E-4,-0E0,8.138849E-3,-1.3988884E-3,2.9003012E-3,-5.8242925E-3,-0E0,-3.5341426E-3,-0E0],"categories":[],"categories_nodes":[],"categories_segments":[],"categories_sizes":[],"default_left":[0,0,0,0,0,0,0,0,0,0,0,0,0,0,0,0,0,0,0,0,0,0,0,0,0,0,0,0,0,0,0],"id":26,"left_children":[1,3,5,7,9,-1,11,-1,-1,13,15,17,19,21,23,25,27,29,-1,-1,-1,-1,-1,-1,-1,-1,-1,-1,-1,-1,-1],"loss_changes":[1.6601785E0,9.261217E-1,1.2593274E0,2.6677752E-1,7.296363E-1,0E0,5.769353E-1,0E0,0E0,5.735708E-1,7.424776E-1,2.6995373E-1,1.7463684E-2,4.1557312E-1,2.1672618E-1,4.4890976E-1,3.284291E-1,1.2098685E-1,0E0,0E0,0E0,0E0,0E0,0E0,0E0,0E0,0E0,0E0,0E0,0E0,0E0],"parents":[2147483647,0,0,1,1,2,2,3,3,4,4,6,6,9,9,10,10,11,11,12,12,13,13,14,14,15,15,16,16,17,17],"right_children":[2,4,6,8,10,-1,12,-1,-1,14,16,18,20,22,24,26,28,30,-1,-1,-1,-1,-1,-1,-1,-1,-1,-1,-1,-1,-1],"split_conditions":[3.6789034E-2,1.3160302E-2,4.707E-3,-7.002E-3,1.7865E-2,6.885813E-3,4.449812E-2,-8.48679E-3,-0E0,1.6038E-2,3.6721118E-2,8.9411455E-1,6.193E-3,-1.6855E-2,9.591318E-3,-3.09E-4,-2.613E-3,-4.3989545E-1,-9.3946615E-3,-4.4440795E-3,-9.607782E-3,5.9629115E-3,9.7509415E-4,-0E0,8.138849E-3,-1.3988884E-3,2.9003012E-3,-5.8242925E-3,-0E0,-3.5341426E-3,-0E0],"split_indices":[7,14,9,4,17,0,0,0,0,12,0,10,9,12,0,12,2,18,0,0,0,0,0,0,0,0,0,0,0,0,0],"split_type":[0,0,0,0,0,0,0,0,0,0,0,0,0,0,0,0,0,0,0,0,0,0,0,0,0,0,0,0,0,0,0],"sum_hessian":[1.74E2,1.44E2,3E1,6E0,1.38E2,3E0,2.7E1,5E0,1E0,8.8E1,5E1,1.4E1,1.3E1,8E1,8E0,3.4E1,1.6E1,1.2E1,2E0,3E0,1E1,7E0,7.3E1,1E0,7E0,1.7E1,1.7E1,1.2E1,4E0,5E0,7E0],"tree_param":{"num_deleted":"0","num_feature":"25","num_nodes":"31","size_leaf_vector":"1"}},{"base_weights":[-5.851515E-3,2.9567674E-2,-2.4076834E-1,-5.351432E-2,1.021941E-1,-3.2991824E-1,8.174492E-2,-1.2937275E-1,1.298221E-1,1.1866579E-1,-9.728004E-3,2.6473657E-3,-3.9154515E-1,1.5872413E-1,-1.0577564E-3,-9.075425E-3,-9.7414926E-2,2.002059E-1,-1.2670118E-1,-1.899479E-1,1.3601007E-1,-9.282077E-3,-2.1383739E-1,-0E0,3.5300213E-3,-4.4195736E-3,-2.5142287E-4,6.155141E-3,1.8265997E-3,-2.994121E-3,-0E0,-0E0,-4.4740452E-3,1.6961715E-3,4.5476444E-3,-6.233193E-3,-1.6178206E-3],"categories":[],"categories_nodes":[],"categories_segments":[],"categories_sizes":[],"default_left":[0,0,0,0,0,0,0,0,0,0,0,0,0,0,0,0,0,0,0,0,0,0,0,0,0,0,0,0,0,0,0,0,0,0,0,0,0],"id":27,"left_children":[1,3,5,7,9,11,13,15,17,19,-1,-1,21,23,-1,-1,25,27,29,31,33,-1,35,-1,-1,-1,-1,-1,-1,-1,-1,-1,-1,-1,-1,-1,-1],"loss_changes":[1.5836202E0,9.7976226E-1,7.610972E-1,1.0290867E0,8.139312E-1,6.2154126E-1,7.046927E-2,4.928016E-1,3.916842E-1,4.4578516E-1,0E0,0E0,1.9236565E-1,3.0388534E-3,0E0,0E0,5.167992E-1,1.4770812E-1,1.0472126E-2,2.2440284E-2,3.3533764E-1,0E0,3.2667726E-2,0E0,0E0,0E0,0E0,0E0,0E0,0E0,0E0,0E0,0E0,0E0,0E0,0E0,0E0],"parents":[2147483647,0,0,1,1,2,2,3,3,4,4,5,5,6,6,7,7,8,8,9,9,12,12,13,13,16,16,17,17,18,18,19,19,20,20,22,22],"right_children":[2,4,6,8,10,12,14,16,18,20,-1,-1,22,24,-1,-1,26,28,30,32,34,-1,36,-1,-1,-1,-1,-1,-1,-1,-1,-1,-1,-1,-1,-1,-1],"split_conditions":[4.7382087E-2,-1.71E-4,6.0010815E-1,3.1642143E-2,9.6540236E-1,1.7711408E-2,6.311218E-2,2.0534625E-2,3.1210022E-2,-9.0067065E-1,-9.728004E-3,2.6473657E-3,3.0518364E-2,-8.39788E-1,-1.0577564E-3,-9.075425E-3,2.2710742E-2,9.928E-3,3.0976348E-2,3.829068E-2,3.5935822E-1,-9.282077E-3,-1.3662E-2,-0E0,3.5300213E-3,-4.4195736E-3,-2.5142287E-4,6.155141E-3,1.8265997E-3,-2.994121E-3,-0E0,-0E0,-4.4740452E-3,1.6961715E-3,4.5476444E-3,-6.233193E-3,-1.6178206E-3],"split_indices":[0,4,16,5,10,14,0,14,7,18,0,0,5,1,0,0,23,9,0,0,19,0,2,0,0,0,0,0,0,0,0,0,0,0,0,0,0],"split_type":[0,0,0,0,0,0,0,0,0,0,0,0,0,0,0,0,0,0,0,0,0,0,0,0,0,0,0,0,0,0,0,0,0,0,0,0,0],"sum_hessian":[1.86E2,1.61E2,2.5E1,7.4E1,8.7E1,2E1,5E0,5.3E1,2.1E1,8.5E1,2E0,2E0,1.8E1,4E0,1E0,4E0,4.9E1,1.7E1,4E0,4E0,8.1E1,1.1E1,7E0,1E0,3E0,1.8E1,3.1E1,7E0,1E1,3E0,1E0,1E0,3E0,5.7E1,2.4E1,3E0,4E0],"tree_param":{"num_deleted":"0","num_feature":"25","num_nodes":"37","size_leaf_vector":"1"}},{"base_weights":[-2.4692636E-2,-1.686287E-1,2.0679245E-2,5.452767E-3,-2.4467526E-1,3.3254664E-2,-3.6113337E-1,-4.10803E-3,6.1298136E-2,-3.9585152E-1,-8.2847044E-2,-6.827797E-2,7.478736E-2,-0E0,-8.172207E-3,1.811953E-3,-0E0,-3.6239487E-3,-8.985039E-3,-2.7463272E-1,8.763472E-2,-2.1652631E-1,-1.568223E-3,1.227202E-1,-3.7246007E-2,-2.5214578E-3,-8.616948E-3,2.7090171E-3,-0E0,-5.3310315E-3,-0E0,-2.8981878E-3,1.0077807E-3,9.02383E-3,1.8670274E-3,-1.800856E-4,-1.1693769E-2],"categories":[],"categories_nodes":[],"categories_segments":[],"categories_sizes":[],"default_left":[0,0,0,0,0,0,0,0,0,0,0,0,0,0,0,0,0,0,0,0,0,0,0,0,0,0,0,0,0,0,0,0,0,0,0,0,0],"id":28,"left_children":[1,3,5,7,9,11,13,-1,15,17,19,21,23,-1,-1,-1,-1,-1,-1,25,27,29,31,33,35,-1,-1,-1,-1,-1,-1,-1,-1,-1,-1,-1,-1],"loss_changes":[1.2268548E0,6.364944E-1,6.115214E-1,1.346737E-1,7.012818E-1,5.7039416E-1,3.4712195E-2,0E0,3.1606384E-2,1.4124489E-1,5.5500567E-1,3.3863503E-1,5.3546494E-1,0E0,0E0,0E0,0E0,0E0,0E0,1.0347879E-1,6.083899E-2,1.1565167E-1,2.4012226E-1,4.9455357E-1,3.4332427E-1,0E0,0E0,0E0,0E0,0E0,0E0,0E0,0E0,0E0,0E0,0E0,0E0],"parents":[2147483647,0,0,1,1,2,2,3,3,4,4,5,5,6,6,8,8,9,9,10,10,11,11,12,12,19,19,20,20,21,21,22,22,23,23,24,24],"right_children":[2,4,6,8,10,12,14,-1,16,18,20,22,24,-1,-1,-1,-1,-1,-1,26,28,30,32,34,36,-1,-1,-1,-1,-1,-1,-1,-1,-1,-1,-1,-1],"split_conditions":[-4.745273E-1,9.068E-3,9.415888E-1,-1.7685E-2,1.022E-3,-7.336E-3,1.938367E-2,-4.10803E-3,2.1075E-2,7.35E-3,3.0195582E-1,-7.619E-3,3.189946E-2,-0E0,-8.172207E-3,1.811953E-3,-0E0,-3.6239487E-3,-8.985039E-3,5.0264586E-2,3.2332156E-2,3.0518364E-2,-8.158E-3,-6.136E-3,1.6915E-2,-2.5214578E-3,-8.616948E-3,2.7090171E-3,-0E0,-5.3310315E-3,-0E0,-2.8981878E-3,1.0077807E-3,9.02383E-3,1.8670274E-3,-1.800856E-4,-1.1693769E-2],"split_indices":[8,11,10,2,13,4,0,0,17,17,24,2,20,0,0,0,0,0,0,0,6,5,12,4,22,0,0,0,0,0,0,0,0,0,0,0,0],"split_type":[0,0,0,0,0,0,0,0,0,0,0,0,0,0,0,0,0,0,0,0,0,0,0,0,0,0,0,0,0,0,0,0,0,0,0,0,0],"sum_hessian":[1.84E2,4.5E1,1.39E2,1.3E1,3.2E1,1.35E2,4E0,2E0,1.1E1,1.6E1,1.6E1,3.8E1,9.7E1,1E0,3E0,8E0,3E0,5E0,1.1E1,8E0,8E0,1.1E1,2.7E1,6.9E1,2.8E1,5E0,3E0,6E0,2E0,8E0,3E0,8E0,1.9E1,4E0,6.5E1,2.7E1,1E0],"tree_param":{"num_deleted":"0","num_feature":"25","num_nodes":"37","size_leaf_vector":"1"}},{"base_weights":[-3.2549663E-3,-7.378288E-2,1.0999338E-1,-1.5945326E-1,1.1904347E-2,2.760348E-2,2.707713E-1,-2.302955E-1,1.1486212E-1,-1.7126469E-2,3.304926E-1,-5.6240067E-2,1.628372E-1,1.6891634E-1,9.753472E-3,-3.7055454E-1,-1.11271E-1,1.833517E-1,-1.08125344E-1,-5.066369E-3,1.2956159E-3,-0E0,7.054593E-3,-1.2720665E-1,3.149031E-2,2.4022064E-1,-6.539698E-2,2.2402483E-1,-0E0,-3.831455E-3,-1.0583955E-2,-1.2811016E-3,-7.123215E-3,-0E0,3.7989945E-3,-3.999498E-3,-0E0,4.3058167E-3,-4.297135E-4,-3.3406569E-3,2.4561249E-3,-0E0,2.8271675E-3,9.1664E-3,2.391952E-3,-0E0,-2.3954958E-3,4.657302E-3,-0E0,5.758926E-4,-1.4551096E-3],"categories":[],"categories_nodes":[],"categories_segments":[],"categories_sizes":[],"default_left":[0,0,0,0,0,0,0,0,0,0,0,0,0,0,0,0,0,0,0,0,0,0,0,0,0,0,0,0,0,0,0,0,0,0,0,0,0,0,0,0,0,0,0,0,0,0,0,0,0,0,0],"id":29,"left_children":[1,3,5,7,9,11,13,15,17,19,21,23,25,27,-1,29,31,33,35,-1,37,-1,-1,39,41,43,45,47,49,-1,-1,-1,-1,-1,-1,-1,-1,-1,-1,-1,-1,-1,-1,-1,-1,-1,-1,-1,-1,-1,-1],"loss_changes":[1.4075576E0,8.3264136E-1,8.3666146E-1,1.1079278E0,5.5284667E-1,5.283988E-1,4.2859578E-1,6.6912365E-1,1.8081646E-1,2.7082223E-1,6.6843033E-3,1.8441306E-1,3.4770322E-1,1.457218E-1,0E0,5.019126E-1,2.1345061E-1,1.8066287E-2,2.1038357E-2,0E0,2.7786246E-1,0E0,0E0,2.0847487E-1,5.5680133E-2,2.843191E-1,3.0699207E-2,6.0328245E-2,8.642798E-3,0E0,0E0,0E0,0E0,0E0,0E0,0E0,0E0,0E0,0E0,0E0,0E0,0E0,0E0,0E0,0E0,0E0,0E0,0E0,0E0,0E0,0E0],"parents":[2147483647,0,0,1,1,2,2,3,3,4,4,5,5,6,6,7,7,8,8,9,9,10,10,11,11,12,12,13,13,15,15,16,16,17,17,18,18,20,20,23,23,24,24,25,25,26,26,27,27,28,28],"right_children":[2,4,6,8,10,12,14,16,18,20,22,24,26,28,-1,30,32,34,36,-1,38,-1,-1,40,42,44,46,48,50,-1,-1,-1,-1,-1,-1,-1,-1,-1,-1,-1,-1,-1,-1,-1,-1,-1,-1,-1,-1,-1,-1],"split_conditions":[1.9676873E-1,-1.9067237E-1,9.102E-3,6.184691E-1,5.2228425E-2,3.326049E-2,5.122729E-1,-2.451E-3,7.819871E-1,-1.7229E-2,2.170873E-2,3.517176E-2,3.2484587E-2,1.9296E-2,9.753472E-3,1.918E-2,4.991314E-2,1.938367E-2,2.9986396E-2,-5.066369E-3,1.6306026E-2,-0E0,7.054593E-3,3.8441364E-2,6.836E-3,3.978149E-1,1.2694968E-1,4.969179E-2,7.108E-3,-3.831455E-3,-1.0583955E-2,-1.2811016E-3,-7.123215E-3,-0E0,3.7989945E-3,-3.999498E-3,-0E0,4.3058167E-3,-4.297135E-4,-3.3406569E-3,2.4561249E-3,-0E0,2.8271675E-3,9.1664E-3,2.391952E-3,-0E0,-2.3954958E-3,4.657302E-3,-0E0,5.758926E-4,-1.4551096E-3],"split_indices":[18,8,4,16,21,6,19,4,1,4,0,0,7,17,0,17,0,0,0,0,23,0,0,5,3,18,1,6,3,0,0,0,0,0,0,0,0,0,0,0,0,0,0,0,0,0,0,0,0,0,0],"split_type":[0,0,0,0,0,0,0,0,0,0,0,0,0,0,0,0,0,0,0,0,0,0,0,0,0,0,0,0,0,0,0,0,0,0,0,0,0,0,0,0,0,0,0,0,0,0,0,0,0,0,0],"sum_hessian":[1.77E2,1.1E2,6.7E1,5.6E1,5.4E1,4.5E1,2.2E1,4.5E1,1.1E1,4.9E1,5E0,2.7E1,1.8E1,1.6E1,6E0,2E1,2.5E1,9E0,2E0,4E0,4.5E1,1E0,4E0,1.6E1,1.1E1,1.4E1,4E0,1.2E1,4E0,1.1E1,9E0,2.2E1,3E0,1E0,8E0,1E0,1E0,5E0,4E1,1.4E1,2E0,8E0,3E0,4E0,1E1,1E0,3E0,1.1E1,1E0,3E0,1E0],"tree_param":{"num_deleted":"0","num_feature":"25","num_nodes":"51","size_leaf_vector":"1"}},{"base_weights":[2.8035216E-2,-1.0318546E-2,2.231513E-1,9.195664E-2,-8.439407E-2,2.6736307E-1,-0E0,2.5351176E-1,1.903493E-2,-3.9745525E-2,-3.8435557E-1,3.058542E-1,-0E0,2.0927559E-3,-1.638256E-3,4.3695697E-1,2.5831975E-2,1.8428649E-1,-7.329875E-2,-1.9512454E-1,1.7845633E-2,-8.769137E-3,-0E0,6.238557E-2,3.5311556E-1,-4.467211E-4,7.75321E-4,8.54342E-5,-0E0,3.887038E-3,1.2989359E-2,3.0724313E-3,-1.2834935E-3,-0E0,4.595416E-3,-2.2338312E-3,1.3337611E-3,3.444314E-3,-4.6765553E-3,-3.0551688E-4,5.7088933E-3,-0E0,2.1739835E-3,8.635443E-3,4.621877E-3],"categories":[],"categories_nodes":[],"categories_segments":[],"categories_sizes":[],"default_left":[0,0,0,0,0,0,0,0,0,0,0,0,0,0,0,0,0,0,0,0,0,0,0,0,0,0,0,0,0,0,0,0,0,0,0,0,0,0,0,0,0,0,0,0,0],"id":30,"left_children":[1,3,5,7,9,11,13,15,17,19,21,23,25,27,-1,29,31,33,35,37,39,-1,-1,41,43,-1,-1,-1,-1,-1,-1,-1,-1,-1,-1,-1,-1,-1,-1,-1,-1,-1,-1,-1,-1],"loss_changes":[1.2785237E0,1.0442111E0,3.2129014E-1,6.250595E-1,1.0125402E0,2.488904E-1,1.4914937E-2,6.3116133E-1,6.292472E-1,6.655543E-1,2.310561E-1,1.7082536E-1,2.7776528E-3,1.1509932E-5,0E0,3.6557162E-1,1.178173E-1,1.3565958E-1,1.675251E-1,3.9761084E-1,5.384575E-1,0E0,0E0,1.0681311E-2,7.080436E-2,0E0,0E0,0E0,0E0,0E0,0E0,0E0,0E0,0E0,0E0,0E0,0E0,0E0,0E0,0E0,0E0,0E0,0E0,0E0,0E0],"parents":[2147483647,0,0,1,1,2,2,3,3,4,4,5,5,6,6,7,7,8,8,9,9,10,10,11,11,12,12,13,13,15,15,16,16,17,17,18,18,19,19,20,20,23,23,24,24],"right_children":[2,4,6,8,10,12,14,16,18,20,22,24,26,28,-1,30,32,34,36,38,40,-1,-1,42,44,-1,-1,-1,-1,-1,-1,-1,-1,-1,-1,-1,-1,-1,-1,-1,-1,-1,-1,-1,-1],"split_conditions":[1.1412E-2,2.3841454E-2,7.648985E-1,2.567338E-1,7.921455E-1,1.9236E-2,3.4507096E-2,-8.69E-4,2.5366706E-1,2.2299273E-2,-4.034E-3,-5.789194E-1,2.3119692E-2,2.923629E-2,-1.638256E-3,9.546E-3,7.379E-3,2.4560703E-2,4.279977E-1,1.56E-3,2.312E-2,-8.769137E-3,-0E0,5.756E-3,3.9430127E-1,-4.467211E-4,7.75321E-4,8.54342E-5,-0E0,3.887038E-3,1.2989359E-2,3.0724313E-3,-1.2834935E-3,-0E0,4.595416E-3,-2.2338312E-3,1.3337611E-3,3.444314E-3,-4.6765553E-3,-3.0551688E-4,5.7088933E-3,-0E0,2.1739835E-3,8.635443E-3,4.621877E-3],"split_indices":[2,20,24,1,10,11,7,2,24,23,2,19,0,0,0,3,9,0,18,11,13,0,0,11,8,0,0,0,0,0,0,0,0,0,0,0,0,0,0,0,0,0,0,0,0],"split_type":[0,0,0,0,0,0,0,0,0,0,0,0,0,0,0,0,0,0,0,0,0,0,0,0,0,0,0,0,0,0,0,0,0,0,0,0,0,0,0,0,0,0,0,0,0],"sum_hessian":[1.66E2,1.38E2,2.8E1,5.7E1,8.1E1,2.4E1,4E0,1.7E1,4E1,7.1E1,1E1,2.1E1,3E0,2E0,2E0,9E0,8E0,1.5E1,2.5E1,2E1,5.1E1,8E0,2E0,4E0,1.7E1,2E0,1E0,1E0,1E0,5E0,4E0,4E0,4E0,4E0,1.1E1,2E1,5E0,2E0,1.8E1,4.5E1,6E0,2E0,2E0,8E0,9E0],"tree_param":{"num_deleted":"0","num_feature":"25","num_nodes":"45","size_leaf_vector":"1"}},{"base_weights":[1.4203565E-2,-5.5670675E-2,1.2544248E-1,8.4434785E-2,-1.16109714E-1,2.0301336E-1,3.8295895E-2,1.2875846E-2,3.1565508E-1,-7.939717E-2,-9.908262E-3,2.9516417E-1,1.1159257E-1,2.0550783E-1,-2.427444E-2,-7.173349E-2,1.8222925E-1,1.4724984E-3,7.1501588E-3,-1.2660189E-1,2.2685412E-1,3.305232E-1,-0E0,1.1314941E-2,2.281704E-1,-0E0,6.0125E-3,-1.24189794E-1,6.1438307E-2,-3.0374208E-3,2.8587475E-3,4.619237E-3,-0E0,8.3112967E-4,-3.503252E-3,7.970701E-3,-0E0,-0E0,7.120514E-3,2.1519577E-3,-4.3025374E-4,-0E0,4.9353493E-3,1.3932395E-3,-0E0,-3.3901555E-3,1.1936461E-3,3.9472817E-3,-0E0],"categories":[],"categories_nodes":[],"categories_segments":[],"categories_sizes":[],"default_left":[0,0,0,0,0,0,0,0,0,0,0,0,0,0,0,0,0,0,0,0,0,0,0,0,0,0,0,0,0,0,0,0,0,0,0,0,0,0,0,0,0,0,0,0,0,0,0,0,0],"id":31,"left_children":[1,3,5,7,9,11,13,15,17,19,-1,21,23,25,27,29,31,-1,-1,33,35,37,-1,39,41,43,-1,45,47,-1,-1,-1,-1,-1,-1,-1,-1,-1,-1,-1,-1,-1,-1,-1,-1,-1,-1,-1,-1],"loss_changes":[1.4032106E0,9.283929E-1,4.3207598E-1,4.7347623E-1,1.0452623E0,2.3395813E-1,3.8661313E-1,3.7705395E-1,2.4437666E-2,1.0093259E0,0E0,1.5761137E-1,1.8129703E-1,1.7999476E-1,2.1623129E-1,3.158902E-1,1.1590618E-1,0E0,0E0,6.3685435E-1,4.1897133E-1,1.9168568E-1,0E0,5.3630095E-2,5.6991428E-2,5.3904415E-3,0E0,1.4199854E-1,1.277769E-1,0E0,0E0,0E0,0E0,0E0,0E0,0E0,0E0,0E0,0E0,0E0,0E0,0E0,0E0,0E0,0E0,0E0,0E0,0E0,0E0],"parents":[2147483647,0,0,1,1,2,2,3,3,4,4,5,5,6,6,7,7,8,8,9,9,11,11,12,12,13,13,14,14,15,15,16,16,19,19,20,20,21,21,23,23,24,24,25,25,27,27,28,28],"right_children":[2,4,6,8,10,12,14,16,18,20,-1,22,24,26,28,30,32,-1,-1,34,36,38,-1,40,42,44,-1,46,48,-1,-1,-1,-1,-1,-1,-1,-1,-1,-1,-1,-1,-1,-1,-1,-1,-1,-1,-1,-1],"split_conditions":[2.1677539E-1,7.13E-3,3.3261627E-2,6.716E-3,8.2583773E-1,8.413E-3,-1.0931E-2,9.293E-3,1.056E-3,2.0247E-2,-9.908262E-3,6.336487E-1,4.68407E-1,-3.4130394E-1,7.853E-3,1.4123E-2,7.4015695E-1,1.4724984E-3,7.1501588E-3,2.5240982E-2,1.3718E-2,-7.4829036E-1,-0E0,-8.629E-3,-6.2720865E-1,-2.9967374E-1,6.0125E-3,1.6806E-2,3.2268416E-2,-3.0374208E-3,2.8587475E-3,4.619237E-3,-0E0,8.3112967E-4,-3.503252E-3,7.970701E-3,-0E0,-0E0,7.120514E-3,2.1519577E-3,-4.3025374E-4,-0E0,4.9353493E-3,1.3932395E-3,-0E0,-3.3901555E-3,1.1936461E-3,3.9472817E-3,-0E0],"split_indices":[18,11,15,12,19,9,3,3,11,13,0,8,8,19,2,13,1,0,0,14,17,8,0,12,1,1,0,9,14,0,0,0,0,0,0,0,0,0,0,0,0,0,0,0,0,0,0,0,0],"split_type":[0,0,0,0,0,0,0,0,0,0,0,0,0,0,0,0,0,0,0,0,0,0,0,0,0,0,0,0,0,0,0,0,0,0,0,0,0,0,0,0,0,0,0,0,0,0,0,0,0],"sum_hessian":[1.79E2,1.09E2,7E1,3.2E1,7.7E1,3.6E1,3.4E1,2.5E1,7E0,7.1E1,6E0,1.7E1,1.9E1,1E1,2.4E1,1.6E1,9E0,2E0,5E0,6.2E1,9E0,1.5E1,2E0,1.1E1,8E0,4E0,6E0,1.2E1,1.2E1,1.2E1,4E0,7E0,2E0,1.5E1,4.7E1,5E0,4E0,2E0,1.3E1,4E0,7E0,1E0,7E0,1E0,3E0,1E1,2E0,4E0,8E0],"tree_param":{"num_deleted":"0","num_feature":"25","num_nodes":"49","size_leaf_vector":"1"}},{"base_weights":[-9.230696E-3,4.3313492E-2,-1.21660635E-1,7.685101E-2,-1.3129023E-1,-5.0808374E-2,-3.8496268E-1,4.251823E-2,2.1252713E-1,-4.0656355E-1,-0E0,-8.500246E-2,3.8396013E-3,-2.9116437E-1,-1.1567006E-2,3.2654706E-2,1.3108113E-2,-7.286951E-4,2.4987634E-1,-8.837535E-3,-0E0,-1.076607E-1,1.16415344E-1,-1.07577436E-1,2.8128132E-1,-0E0,-5.966944E-3,3.7148606E-3,-0E0,5.4373513E-3,-0E0,-6.6331816E-3,-0E0,-0E0,2.812512E-3,-1.2092858E-3,-4.214452E-3,-0E0,7.590245E-3],"categories":[],"categories_nodes":[],"categories_segments":[],"categories_sizes":[],"default_left":[0,0,0,0,0,0,0,0,0,0,0,0,0,0,0,0,0,0,0,0,0,0,0,0,0,0,0,0,0,0,0,0,0,0,0,0,0,0,0],"id":32,"left_children":[1,3,5,7,9,11,13,15,17,19,21,23,-1,25,-1,27,-1,-1,29,-1,-1,31,33,35,37,-1,-1,-1,-1,-1,-1,-1,-1,-1,-1,-1,-1,-1,-1],"loss_changes":[1.088525E0,7.1098226E-1,1.0264082E0,4.409787E-1,6.642582E-1,3.8683617E-1,9.927809E-2,4.1379833E-1,2.2348082E-1,9.267539E-2,1.62451E-1,3.17687E-1,0E0,2.799195E-2,0E0,4.0969163E-1,0E0,0E0,1.8972576E-1,0E0,0E0,1.6323344E-1,2.8517455E-2,1.5214935E-1,1.7485023E-3,0E0,0E0,0E0,0E0,0E0,0E0,0E0,0E0,0E0,0E0,0E0,0E0,0E0,0E0],"parents":[2147483647,0,0,1,1,2,2,3,3,4,4,5,5,6,6,7,7,8,8,9,9,10,10,11,11,13,13,15,15,18,18,21,21,22,22,23,23,24,24],"right_children":[2,4,6,8,10,12,14,16,18,20,22,24,-1,26,-1,28,-1,-1,30,-1,-1,32,34,36,38,-1,-1,-1,-1,-1,-1,-1,-1,-1,-1,-1,-1,-1,-1],"split_conditions":[3.299501E-2,3.6212746E-2,4.692999E-2,4.4235405E-2,2.3719484E-2,2.508E-2,2.4501E-2,9.405947E-1,-1.6367E-2,5.56E-3,1.05E-3,6.7317706E-1,3.8396013E-3,1.0839584E-2,-1.1567006E-2,3.986E-3,1.3108113E-2,-7.286951E-4,1.9799E-2,-8.837535E-3,-0E0,3.6658786E-2,1.5727066E-2,1.4796E-2,2.170873E-2,-0E0,-5.966944E-3,3.7148606E-3,-0E0,5.4373513E-3,-0E0,-6.6331816E-3,-0E0,-0E0,2.812512E-3,-1.2092858E-3,-4.214452E-3,-0E0,7.590245E-3],"split_indices":[7,20,0,21,6,13,11,19,4,2,13,16,0,6,0,17,0,0,11,0,0,20,0,9,0,0,0,0,0,0,0,0,0,0,0,0,0,0,0],"split_type":[0,0,0,0,0,0,0,0,0,0,0,0,0,0,0,0,0,0,0,0,0,0,0,0,0,0,0,0,0,0,0,0,0,0,0,0,0,0,0],"sum_hessian":[1.82E2,1.23E2,5.9E1,1.04E2,1.9E1,4.7E1,1.2E1,8.4E1,2E1,6E0,1.3E1,4.2E1,5E0,9E0,3E0,8.3E1,1E0,2E0,1.8E1,5E0,1E0,7E0,6E0,4E1,2E0,1E0,8E0,1.3E1,7E1,1.6E1,2E0,2E0,5E0,1E0,5E0,3E1,1E1,1E0,1E0],"tree_param":{"num_deleted":"0","num_feature":"25","num_nodes":"39","size_leaf_vector":"1"}},{"base_weights":[-1.244334E-2,4.4738665E-2,-1.479156E-1,-1.620099E-2,2.2058597E-1,-7.758417E-2,-9.780713E-3,-1.5248358E-1,5.260683E-2,3.002334E-1,3.350457E-2,-1.7233682E-1,6.265798E-2,-0E0,-2.8513557E-1,-3.596801E-2,1.4433E-1,3.1855813E-1,-0E0,1.4026575E-1,-1.2320734E-1,7.5799883E-3,-2.0460688E-1,2.1487558E-1,-1.9883614E-2,-2.8844234E-3,2.1330684E-3,-2.1407716E-3,-8.218892E-3,-1.5341184E-3,2.0769238E-3,6.490054E-3,8.9199E-4,6.456118E-3,1.1397208E-3,-0E0,3.033642E-3,-3.3343208E-3,-0E0,-3.6153573E-4,-5.221074E-3,4.58055E-3,-0E0,-1.7213536E-3,2.7097152E-3],"categories":[],"categories_nodes":[],"categories_segments":[],"categories_sizes":[],"default_left":[0,0,0,0,0,0,0,0,0,0,0,0,0,0,0,0,0,0,0,0,0,0,0,0,0,0,0,0,0,0,0,0,0,0,0,0,0,0,0,0,0,0,0,0,0],"id":33,"left_children":[1,3,5,7,9,11,-1,13,15,17,19,21,23,25,27,29,31,33,-1,35,37,-1,39,41,43,-1,-1,-1,-1,-1,-1,-1,-1,-1,-1,-1,-1,-1,-1,-1,-1,-1,-1,-1,-1],"loss_changes":[1.1950642E0,1.1707374E0,1.0878847E0,7.484521E-1,3.6033618E-1,5.36937E-1,0E0,5.1044846E-1,4.3281084E-1,1.1396515E-1,1.5348403E-1,4.0962666E-1,2.2169697E-1,2.270716E-1,2.6395297E-1,1.5826513E-1,4.3391E-1,3.256476E-2,0E0,9.735614E-3,1.6207088E-2,0E0,2.508598E-1,1.4296055E-2,9.482052E-2,0E0,0E0,0E0,0E0,0E0,0E0,0E0,0E0,0E0,0E0,0E0,0E0,0E0,0E0,0E0,0E0,0E0,0E0,0E0,0E0],"parents":[2147483647,0,0,1,1,2,2,3,3,4,4,5,5,7,7,8,8,9,9,10,10,11,11,12,12,13,13,14,14,15,15,16,16,17,17,19,19,20,20,22,22,23,23,24,24],"right_children":[2,4,6,8,10,12,-1,14,16,18,20,22,24,26,28,30,32,34,-1,36,38,-1,40,42,44,-1,-1,-1,-1,-1,-1,-1,-1,-1,-1,-1,-1,-1,-1,-1,-1,-1,-1,-1,-1],"split_conditions":[4.235398E-2,3.738375E-2,3.7811365E-2,-8.265E-3,1.4995E-2,2.6377058E-2,-9.780713E-3,2.3323352E-2,2.096E-3,7.934802E-1,2.781856E-2,4.74E-4,4.940719E-2,3.5025332E-2,-1.8477E-2,3.6733907E-2,1.7907392E-2,3.259403E-2,-0E0,-1.7346E-2,-8.051E-3,7.5799883E-3,3.1061485E-2,1.7669E-2,6.1881316E-1,-2.8844234E-3,2.1330684E-3,-2.1407716E-3,-8.218892E-3,-1.5341184E-3,2.0769238E-3,6.490054E-3,8.9199E-4,6.456118E-3,1.1397208E-3,-0E0,3.033642E-3,-3.3343208E-3,-0E0,-3.6153573E-4,-5.221074E-3,4.58055E-3,-0E0,-1.7213536E-3,2.7097152E-3],"split_indices":[15,6,7,13,11,5,0,7,4,18,20,17,15,14,13,23,20,7,0,2,4,0,20,3,18,0,0,0,0,0,0,0,0,0,0,0,0,0,0,0,0,0,0,0,0],"split_type":[0,0,0,0,0,0,0,0,0,0,0,0,0,0,0,0,0,0,0,0,0,0,0,0,0,0,0,0,0,0,0,0,0,0,0,0,0,0,0,0,0,0,0,0,0],"sum_hessian":[1.52E2,1.06E2,4.6E1,7.8E1,2.8E1,3.9E1,7E0,2.7E1,5.1E1,1.9E1,9E0,2.4E1,1.5E1,1.3E1,1.4E1,2.5E1,2.6E1,1.8E1,1E0,6E0,3E0,1E0,2.3E1,6E0,9E0,6E0,7E0,7E0,7E0,2E1,5E0,8E0,1.8E1,1.6E1,2E0,1E0,5E0,2E0,1E0,7E0,1.6E1,5E0,1E0,7E0,2E0],"tree_param":{"num_deleted":"0","num_feature":"25","num_nodes":"45","size_leaf_vector":"1"}},{"base_weights":[-4.9043703E-3,2.6603425E-2,-3.864133E-1,1.6768327E-1,-8.132476E-3,-1.0044156E-2,-1.237124E-1,-2.4083165E-2,2.8167638E-1,6.686024E-2,-8.22454E-2,-3.754099E-3,-0E0,1.2192447E-1,-1.3186343E-1,1.1522007E-1,4.3108952E-1,-1.1608974E-2,1.3839462E-1,-3.885624E-2,-3.5381833E-1,3.0023886E-3,-0E0,-0E0,-2.9001394E-3,4.1644326E-3,-0E0,-0E0,9.135789E-3,8.763276E-4,-4.5975093E-3,8.7223825E-4,5.2800365E-3,-3.8893651E-3,2.8499935E-4,-7.246729E-4,-8.171674E-3],"categories":[],"categories_nodes":[],"categories_segments":[],"categories_sizes":[],"default_left":[0,0,0,0,0,0,0,0,0,0,0,0,0,0,0,0,0,0,0,0,0,0,0,0,0,0,0,0,0,0,0,0,0,0,0,0,0],"id":34,"left_children":[1,3,5,7,9,-1,11,13,15,17,19,-1,-1,21,23,25,27,29,31,33,35,-1,-1,-1,-1,-1,-1,-1,-1,-1,-1,-1,-1,-1,-1,-1,-1],"loss_changes":[2.044706E0,7.720739E-1,3.766719E-1,7.215635E-1,6.751316E-1,0E0,4.0886298E-2,1.7479806E-1,4.04307E-1,3.5278976E-1,6.636419E-1,0E0,0E0,1.5635598E-2,1.8424146E-2,1.08042166E-1,2.2758484E-1,3.933291E-1,3.5838223E-1,5.156023E-1,1.1403525E-1,0E0,0E0,0E0,0E0,0E0,0E0,0E0,0E0,0E0,0E0,0E0,0E0,0E0,0E0,0E0,0E0],"parents":[2147483647,0,0,1,1,2,2,3,3,4,4,6,6,7,7,8,8,9,9,10,10,13,13,14,14,15,15,16,16,17,17,18,18,19,19,20,20],"right_children":[2,4,6,8,10,-1,12,14,16,18,20,-1,-1,22,24,26,28,30,32,34,36,-1,-1,-1,-1,-1,-1,-1,-1,-1,-1,-1,-1,-1,-1,-1,-1],"split_conditions":[3.90577E-2,2.871E-3,2.4696168E-2,2.6022794E-2,1.4444E-2,-1.0044156E-2,5.330788E-1,1.4352208E-2,-8.051E-3,4.176E-3,3.7811365E-2,-3.754099E-3,-0E0,3.0702233E-2,-1.4228E-2,7.13E-3,2.11E-4,2.896267E-2,3.1821093E-1,-5.733E-3,6.132E-3,3.0023886E-3,-0E0,-0E0,-2.9001394E-3,4.1644326E-3,-0E0,-0E0,9.135789E-3,8.763276E-4,-4.5975093E-3,8.7223825E-4,5.2800365E-3,-3.8893651E-3,2.8499935E-4,-7.246729E-4,-8.171674E-3],"split_indices":[20,9,5,23,17,0,1,20,4,4,7,0,0,0,3,11,9,20,19,4,9,0,0,0,0,0,0,0,0,0,0,0,0,0,0,0,0],"split_type":[0,0,0,0,0,0,0,0,0,0,0,0,0,0,0,0,0,0,0,0,0,0,0,0,0,0,0,0,0,0,0,0,0,0,0,0,0],"sum_hessian":[1.65E2,1.52E2,1.3E1,3.1E1,1.21E2,8E0,5E0,1.1E1,2E1,5.9E1,6.2E1,3E0,2E0,4E0,7E0,1E1,1E1,2.7E1,3.2E1,5.4E1,8E0,3E0,1E0,1E0,6E0,5E0,5E0,1E0,9E0,2.1E1,6E0,2E1,1.2E1,1.4E1,4E1,2E0,6E0],"tree_param":{"num_deleted":"0","num_feature":"25","num_nodes":"37","size_leaf_vector":"1"}},{"base_weights":[2.8723978E-2,5.0220832E-2,-2.528297E-1,-9.126818E-3,6.205951E-2,2.3408632E-3,-3.0749145E-1,2.3049355E-2,1.842517E-1,-3.4296038E-3,-7.593719E-3,7.1639516E-3,1.7785194E-3,-1.8413012E-1,2.2411346E-1,8.983591E-4,-2.8576253E-3,-0E0,-5.0154463E-3,5.106727E-3,7.41334E-4],"categories":[],"categories_nodes":[],"categories_segments":[],"categories_sizes":[],"default_left":[0,0,0,0,0,0,0,0,0,0,0,0,0,0,0,0,0,0,0,0,0],"id":35,"left_children":[1,3,5,-1,7,-1,9,11,13,-1,-1,-1,15,17,19,-1,-1,-1,-1,-1,-1],"loss_changes":[9.5202965E-1,8.8444936E-1,2.575755E-1,0E0,6.749131E-1,0E0,1.8473327E-2,7.9490083E-1,5.2076685E-1,0E0,0E0,0E0,7.3216087E-1,3.7996516E-2,2.139219E-1,0E0,0E0,0E0,0E0,0E0,0E0],"parents":[2147483647,0,0,1,1,2,2,4,4,6,6,7,7,8,8,12,12,13,13,14,14],"right_children":[2,4,6,-1,8,-1,10,12,14,-1,-1,-1,16,18,20,-1,-1,-1,-1,-1,-1],"split_conditions":[5.376489E-2,-1.9009E-2,5.859E-3,-9.126818E-3,4.4079E-2,2.3408632E-3,2.7053368E-1,1.258E-3,-9.0599954E-1,-3.4296038E-3,-7.593719E-3,7.1639516E-3,7.7364844E-1,2.6902493E-2,3.1436183E-2,8.983591E-4,-2.8576253E-3,-0E0,-5.0154463E-3,5.106727E-3,7.41334E-4],"split_indices":[0,3,9,0,21,0,19,17,19,0,0,0,1,0,7,0,0,0,0,0,0],"split_type":[0,0,0,0,0,0,0,0,0,0,0,0,0,0,0,0,0,0,0,0,0],"sum_hessian":[1.63E2,1.52E2,1.1E1,3E0,1.49E2,1E0,1E1,1.14E2,3.5E1,5E0,5E0,6E0,1.08E2,3E0,3.2E1,8.4E1,2.4E1,1E0,2E0,2.5E1,7E0],"tree_param":{"num_deleted":"0","num_feature":"25","num_nodes":"21","size_leaf_vector":"1"}},{"base_weights":[-1.7361725E-3,1.1319833E-1,-5.275133E-2,2.6066545E-1,4.0836908E-2,-1.8216822E-1,8.387493E-3,3.1736368E-1,3.3788398E-2,-5.0866846E-2,1.8669783E-1,-2.7126664E-1,-7.0031546E-2,-3.4710154E-1,5.3318597E-2,-0E0,3.4523368E-1,1.9605958E-3,-0E0,-1.5085968E-1,1.0281671E-1,-0E0,4.0442252E-1,-1.801351E-1,-9.220227E-3,-1.07119605E-1,7.096101E-2,-8.641022E-3,-0E0,3.0267155E-1,2.5143566E-2,-0E0,6.947451E-3,-0E0,-4.4227326E-3,2.8690293E-3,-0E0,4.3717613E-3,-2.7387755E-3,9.701213E-3,-1.2517412E-3,1.4681256E-3,-4.3473896E-3,-4.4410228E-4,-3.6132582E-3,-0E0,2.0560885E-3,1.4124624E-4,-0E0,2.8329624E-3,8.546426E-3,3.2112624E-3,-1.7182188E-4],"categories":[],"categories_nodes":[],"categories_segments":[],"categories_sizes":[],"default_left":[0,0,0,0,0,0,0,0,0,0,0,0,0,0,0,0,0,0,0,0,0,0,0,0,0,0,0,0,0,0,0,0,0,0,0,0,0,0,0,0,0,0,0,0,0,0,0,0,0,0,0,0,0],"id":36,"left_children":[1,3,5,7,9,11,13,15,17,19,21,23,25,27,29,-1,31,-1,-1,33,35,37,39,41,-1,43,45,-1,47,49,51,-1,-1,-1,-1,-1,-1,-1,-1,-1,-1,-1,-1,-1,-1,-1,-1,-1,-1,-1,-1,-1,-1],"loss_changes":[1.0392469E0,5.248448E-1,1.0186671E0,1.5883267E-1,5.1806164E-1,3.5147142E-1,1.2916216E0,1.2087953E-1,1.6782448E-2,3.462676E-1,6.220617E-1,3.1676483E-1,1.05516225E-1,3.6713076E-1,4.7104454E-1,0E0,4.4167995E-2,0E0,0E0,1.7025262E-1,5.257923E-2,2.6337248E-1,4.2755628E-1,2.2757334E-1,0E0,7.51221E-2,8.37297E-3,0E0,5.5402157E-5,5.6381524E-2,3.6235267E-1,0E0,0E0,0E0,0E0,0E0,0E0,0E0,0E0,0E0,0E0,0E0,0E0,0E0,0E0,0E0,0E0,0E0,0E0,0E0,0E0,0E0,0E0],"parents":[2147483647,0,0,1,1,2,2,3,3,4,4,5,5,6,6,7,7,8,8,9,9,10,10,11,11,12,12,13,13,14,14,16,16,19,19,20,20,21,21,22,22,23,23,25,25,26,26,28,28,29,29,30,30],"right_children":[2,4,6,8,10,12,14,16,18,20,22,24,26,28,30,-1,32,-1,-1,34,36,38,40,42,-1,44,46,-1,48,50,52,-1,-1,-1,-1,-1,-1,-1,-1,-1,-1,-1,-1,-1,-1,-1,-1,-1,-1,-1,-1,-1,-1],"split_conditions":[2.841266E-2,2.2665711E-2,2.5863584E-2,2.689735E-2,3.3349052E-2,2.713009E-2,-6.3136774E-1,1.19928345E-2,1.8772172E-2,1.6799E-2,6.77E-4,2.4205E-2,7.4817085E-1,1.1244E-2,-4.7782764E-1,-0E0,1.78144E-2,1.9605958E-3,-0E0,3.9848632E-1,3.407835E-2,1.7704569E-2,3.8804103E-2,4.628E-3,-9.220227E-3,3.532099E-2,1.3737076E-2,-8.641022E-3,4.1704785E-2,7.391E-3,-3.1248134E-1,-0E0,6.947451E-3,-0E0,-4.4227326E-3,2.8690293E-3,-0E0,4.3717613E-3,-2.7387755E-3,9.701213E-3,-1.2517412E-3,1.4681256E-3,-4.3473896E-3,-4.4410228E-4,-3.6132582E-3,-0E0,2.0560885E-3,1.4124624E-4,-0E0,2.8329624E-3,8.546426E-3,3.2112624E-3,-1.7182188E-4],"split_indices":[15,7,6,15,0,5,8,21,6,17,3,17,8,3,1,0,6,0,0,24,5,5,0,11,0,21,7,0,0,3,8,0,0,0,0,0,0,0,0,0,0,0,0,0,0,0,0,0,0,0,0,0,0],"split_type":[0,0,0,0,0,0,0,0,0,0,0,0,0,0,0,0,0,0,0,0,0,0,0,0,0,0,0,0,0,0,0,0,0,0,0,0,0,0,0,0,0,0,0,0,0,0,0,0,0,0,0,0,0],"sum_hessian":[1.79E2,5.4E1,1.25E2,1.7E1,3.7E1,4.1E1,8.4E1,1.3E1,4E0,2.2E1,1.5E1,2.2E1,1.9E1,9E0,7.5E1,1E0,1.2E1,2E0,2E0,1.4E1,8E0,8E0,7E0,1.6E1,6E0,1.6E1,3E0,7E0,2E0,7E0,6.8E1,1E0,1.1E1,5E0,9E0,6E0,2E0,3E0,5E0,6E0,1E0,2E0,1.4E1,9E0,7E0,1E0,2E0,1E0,1E0,4E0,3E0,1.4E1,5.4E1],"tree_param":{"num_deleted":"0","num_feature":"25","num_nodes":"53","size_leaf_vector":"1"}},{"base_weights":[-0E0,3.7203517E-2,-2.3507692E-1,-2.3997839E-1,5.6515608E-2,-3.2966435E-2,-3.5283142E-1,-0E0,-7.576965E-3,-4.6063215E-2,1.1136875E-1,-3.69129E-3,-0E0,-5.320066E-2,-4.1905513E-1,-9.210942E-2,8.9139685E-2,-5.776044E-2,1.3921662E-1,2.0801292E-3,-1.1220158E-3,-3.3427451E-3,4.2265005E-4,-8.794356E-3,-2.5451612E-3,-3.333512E-3,-0E0,4.598214E-3,-1.916423E-4,2.1593586E-4,-3.5797479E-3,3.222189E-3,-0E0],"categories":[],"categories_nodes":[],"categories_segments":[],"categories_sizes":[],"default_left":[0,0,0,0,0,0,0,0,0,0,0,0,0,0,0,0,0,0,0,0,0,0,0,0,0,0,0,0,0,0,0,0,0],"id":37,"left_children":[1,3,5,7,9,11,13,-1,-1,15,17,-1,19,21,23,25,27,29,31,-1,-1,-1,-1,-1,-1,-1,-1,-1,-1,-1,-1,-1,-1],"loss_changes":[1.4744695E0,7.556176E-1,4.8163462E-1,2.7883083E-1,7.876245E-1,6.5895095E-2,1.9731009E-1,0E0,0E0,2.931084E-1,4.4248235E-1,0E0,5.003143E-2,5.4064777E-2,3.726065E-2,2.5002623E-1,2.0678356E-1,1.3880053E-1,3.4295976E-1,0E0,0E0,0E0,0E0,0E0,0E0,0E0,0E0,0E0,0E0,0E0,0E0,0E0,0E0],"parents":[2147483647,0,0,1,1,2,2,3,3,4,4,5,5,6,6,9,9,10,10,12,12,13,13,14,14,15,15,16,16,17,17,18,18],"right_children":[2,4,6,8,10,12,14,-1,-1,16,18,-1,20,22,24,26,28,30,32,-1,-1,-1,-1,-1,-1,-1,-1,-1,-1,-1,-1,-1,-1],"split_conditions":[7.515443E-1,1.3106481E-2,1.4292E-2,2.544515E-2,-7.336E-3,-7.232E-3,2.7183762E-2,-0E0,-7.576965E-3,6.0010815E-1,1.575623E-2,-3.69129E-3,9.033323E-1,-1.5571E-2,5.244038E-2,2.713009E-2,-2.4154115E-2,1.1762345E-2,4.6875072E-1,2.0801292E-3,-1.1220158E-3,-3.3427451E-3,4.2265005E-4,-8.794356E-3,-2.5451612E-3,-3.333512E-3,-0E0,4.598214E-3,-1.916423E-4,2.1593586E-4,-3.5797479E-3,3.222189E-3,-0E0],"split_indices":[10,23,17,20,4,12,14,0,0,16,5,0,10,2,0,5,19,5,10,0,0,0,0,0,0,0,0,0,0,0,0,0,0],"split_type":[0,0,0,0,0,0,0,0,0,0,0,0,0,0,0,0,0,0,0,0,0,0,0,0,0,0,0,0,0,0,0,0,0],"sum_hessian":[1.7E2,1.47E2,2.3E1,9E0,1.38E2,9E0,1.4E1,4E0,5E0,4.7E1,9.1E1,2E0,7E0,3E0,1.1E1,3.6E1,1.1E1,1.2E1,7.9E1,3E0,4E0,2E0,1E0,9E0,2E0,1.8E1,1.8E1,5E0,6E0,7E0,5E0,6.5E1,1.4E1],"tree_param":{"num_deleted":"0","num_feature":"25","num_nodes":"33","size_leaf_vector":"1"}},{"base_weights":[1.8865898E-2,2.5061432E-1,-6.5840567E-3,4.6134107E-2,3.907177E-1,-1.7951916E-1,2.8024739E-2,-6.1198488E-2,3.2115907E-3,1.06286965E-2,5.26824E-3,-3.79929E-2,-3.0684283E-1,-6.0237914E-2,6.562351E-2,-0E0,-1.6987054E-3,-1.192044E-1,5.3674523E-3,-4.268039E-3,-9.408903E-3,-8.68602E-3,-9.8477295E-3,-4.207034E-2,1.1049452E-1,-3.9220727E-3,-0E0,1.9169632E-4,-6.773273E-3,1.5670661E-3,-2.2755063E-3,-2.6134325E-3,2.691042E-3],"categories":[],"categories_nodes":[],"categories_segments":[],"categories_sizes":[],"default_left":[0,0,0,0,0,0,0,0,0,0,0,0,0,0,0,0,0,0,0,0,0,0,0,0,0,0,0,0,0,0,0,0,0],"id":38,"left_children":[1,3,5,7,9,11,13,15,-1,-1,-1,17,19,21,23,-1,-1,25,-1,-1,-1,27,-1,29,31,-1,-1,-1,-1,-1,-1,-1,-1],"loss_changes":[9.557785E-1,3.8392067E-1,8.5774493E-1,1.1090785E-1,2.9636502E-2,3.7370056E-1,3.8255304E-1,4.790743E-3,0E0,0E0,0E0,2.8478244E-1,6.295991E-2,6.904355E-1,4.0791285E-1,0E0,0E0,1.1420703E-1,0E0,0E0,0E0,2.5539422E-1,0E0,2.2953242E-1,4.5930165E-1,0E0,0E0,0E0,0E0,0E0,0E0,0E0,0E0],"parents":[2147483647,0,0,1,1,2,2,3,3,4,4,5,5,6,6,7,7,11,11,12,12,13,13,14,14,17,17,21,21,23,23,24,24],"right_children":[2,4,6,8,10,12,14,16,-1,-1,-1,18,20,22,24,-1,-1,26,-1,-1,-1,28,-1,30,32,-1,-1,-1,-1,-1,-1,-1,-1],"split_conditions":[-5.022066E-1,-7.1731085E-1,-7.2365457E-1,-5.781465E-1,-1.2203751E-1,4.141466E-2,1.934208E-2,-1.5807E-2,3.2115907E-3,1.06286965E-2,5.26824E-3,4.5329355E-2,5.329227E-1,4.7322802E-2,-9.007E-3,-0E0,-1.6987054E-3,2.3637854E-2,5.3674523E-3,-4.268039E-3,-9.408903E-3,3.9313708E-2,-9.8477295E-3,3.0730363E-2,1.5727066E-2,-3.9220727E-3,-0E0,1.9169632E-4,-6.773273E-3,1.5670661E-3,-2.2755063E-3,-2.6134325E-3,2.691042E-3],"split_indices":[1,1,18,19,8,0,23,3,0,0,0,6,19,0,4,0,0,23,0,0,0,7,0,23,0,0,0,0,0,0,0,0,0],"split_type":[0,0,0,0,0,0,0,0,0,0,0,0,0,0,0,0,0,0,0,0,0,0,0,0,0,0,0,0,0,0,0,0,0],"sum_hessian":[1.55E2,1.6E1,1.39E2,7E0,9E0,2.4E1,1.15E2,3E0,4E0,3E0,6E0,1.2E1,1.2E1,3.3E1,8.2E1,1E0,2E0,1E1,2E0,9E0,3E0,3E1,3E0,2.3E1,5.9E1,6E0,4E0,2.8E1,2E0,8E0,1.5E1,6E0,5.3E1],"tree_param":{"num_deleted":"0","num_feature":"25","num_nodes":"33","size_leaf_vector":"1"}},{"base_weights":[1.043333E-2,-2.7371429E-2,1.4887458E-1,-5.6053996E-2,1.7762291E-1,-5.0906874E-2,2.1690084E-1,-2.0007521E-1,-1.1823015E-2,3.5528612E-1,2.3071595E-2,-0E0,-2.347033E-3,2.5458458E-1,-2.8839143E-4,5.4714456E-3,-2.2872023E-1,3.171822E-2,-1.7610471E-1,7.7472956E-5,9.2657935E-3,9.469684E-2,-2.0226652E-3,-0E0,1.6550175E-4,1.0178453E-1,6.4641093E-3,-5.6154667E-3,-1.8824154E-4,-3.3764407E-4,3.182624E-3,1.8969337E-3,-5.6055244E-3,2.0668744E-3,-0E0,2.884941E-3,-0E0],"categories":[],"categories_nodes":[],"categories_segments":[],"categories_sizes":[],"default_left":[0,0,0,0,0,0,0,0,0,0,0,0,0,0,0,0,0,0,0,0,0,0,0,0,0,0,0,0,0,0,0,0,0,0,0,0,0],"id":39,"left_children":[1,3,5,7,9,11,13,15,17,19,21,23,-1,25,-1,-1,27,29,31,-1,-1,33,-1,-1,-1,35,-1,-1,-1,-1,-1,-1,-1,-1,-1,-1,-1],"loss_changes":[8.267036E-1,6.8485254E-1,4.9036372E-1,6.3912714E-1,3.1992918E-1,4.0456608E-2,2.682035E-1,3.2560933E-1,6.111562E-1,1.9633353E-1,7.226879E-2,2.2819135E-4,0E0,2.2702873E-1,0E0,0E0,2.860452E-1,4.5648527E-1,6.2608516E-1,0E0,0E0,5.5109113E-3,0E0,0E0,0E0,4.5434058E-2,0E0,0E0,0E0,0E0,0E0,0E0,0E0,0E0,0E0,0E0,0E0],"parents":[2147483647,0,0,1,1,2,2,3,3,4,4,5,5,6,6,7,7,8,8,9,9,10,10,11,11,13,13,16,16,17,17,18,18,21,21,25,25],"right_children":[2,4,6,8,10,12,14,16,18,20,22,24,-1,26,-1,-1,28,30,32,-1,-1,34,-1,-1,-1,36,-1,-1,-1,-1,-1,-1,-1,-1,-1,-1,-1],"split_conditions":[1.1516E-2,1.978E-2,2.54482E-2,-1.1698E-2,-4.3278772E-1,1.7681E-2,4.1205578E-2,2.7442947E-2,3.2701343E-2,3.1150114E-2,8.579E-3,1.8290967E-2,-2.347033E-3,3.326049E-2,-2.8839143E-4,5.4714456E-3,2.2324E-2,3.934934E-2,1.4976773E-1,7.7472956E-5,9.2657935E-3,2.5449E-2,-2.0226652E-3,-0E0,1.6550175E-4,1.7619E-2,6.4641093E-3,-5.6154667E-3,-1.8824154E-4,-3.3764407E-4,3.182624E-3,1.8969337E-3,-5.6055244E-3,2.0668744E-3,-0E0,2.884941E-3,-0E0],"split_indices":[2,13,14,2,18,13,20,0,20,0,2,0,0,6,0,0,11,6,24,0,0,13,0,0,0,11,0,0,0,0,0,0,0,0,0,0,0],"split_type":[0,0,0,0,0,0,0,0,0,0,0,0,0,0,0,0,0,0,0,0,0,0,0,0,0,0,0,0,0,0,0,0,0,0,0,0,0],"sum_hessian":[1.54E2,1.2E2,3.4E1,1.06E2,1.4E1,8E0,2.6E1,2.4E1,8.2E1,6E0,8E0,4E0,4E0,2.3E1,3E0,1E0,2.3E1,6.4E1,1.8E1,2E0,4E0,6E0,2E0,1E0,3E0,9E0,1.4E1,1.7E1,6E0,4.6E1,1.8E1,5E0,1.3E1,5E0,1E0,6E0,3E0],"tree_param":{"num_deleted":"0","num_feature":"25","num_nodes":"37","size_leaf_vector":"1"}},{"base_weights":[-8.642639E-3,3.4290273E-3,-8.736893E-3,-4.298581E-2,1.1780239E-1,-9.902986E-2,3.9864786E-2,3.3966187E-1,6.6203184E-2,-1.3838452E-1,2.0434213E-1,-1.2273928E-2,1.6593203E-1,-0E0,7.419908E-3,-6.559498E-2,1.4573666E-1,-2.0823693E-3,-6.7463736E-3,5.7202755E-3,-3.3035056E-5,-1.0700987E-3,1.640223E-3,-0E0,3.7950021E-3,2.368666E-3,-2.8527433E-3,3.7958438E-3,-1.1208762E-3],"categories":[],